digraph Tree {
node [shape=box, style="filled", color="black", fontname="helvetica"] ;
edge [fontname="helvetica"] ;
0 [label="Precipitation(in) <= 0.003\nentropy = 0.644\nsamples = 2080931\nvalue = [19266, 1853094, 113460, 95111]\nclass = 2", fillcolor="#5ce850"] ;
1 [label="Distance(mi) <= 0.005\nentropy = 0.46\nsamples = 1569661\nvalue = [16608, 1462509, 45706, 44838]\nclass = 2", fillcolor="#54e747"] ;
0 -> 1 [labeldistance=2.5, labelangle=45, headlabel="True"] ;
2 [label="Crossing <= 0.5\nentropy = 0.894\nsamples = 222877\nvalue = [15019, 184043, 20757, 3058]\nclass = 2", fillcolor="#6aea5f"] ;
1 -> 2 ;
3 [label="Pressure(in) <= 24.715\nentropy = 0.809\nsamples = 198953\nvalue = [9233, 168678, 18304, 2738]\nclass = 2", fillcolor="#66e95a"] ;
2 -> 3 ;
4 [label="Traffic_Signal <= 0.5\nentropy = 1.329\nsamples = 3375\nvalue = [155, 1488, 1673, 59]\nclass = 3", fillcolor="#ecf5fc"] ;
3 -> 4 ;
5 [label="Pressure(in) <= 22.255\nentropy = 1.261\nsamples = 3112\nvalue = [104, 1345, 1621, 42]\nclass = 3", fillcolor="#e0f0fb"] ;
4 -> 5 ;
6 [label="Pressure(in) <= 20.085\nentropy = 0.494\nsamples = 107\nvalue = [0, 6, 98, 3]\nclass = 3", fillcolor="#4ba6e7"] ;
5 -> 6 ;
7 [label="entropy = 0.0\nsamples = 2\nvalue = [0, 2, 0, 0]\nclass = 2", fillcolor="#47e539"] ;
6 -> 7 ;
8 [label="Pressure(in) <= 20.805\nentropy = 0.419\nsamples = 105\nvalue = [0, 4, 98, 3]\nclass = 3", fillcolor="#47a4e7"] ;
6 -> 8 ;
9 [label="entropy = 0.0\nsamples = 69\nvalue = [0, 0, 69, 0]\nclass = 3", fillcolor="#399de5"] ;
8 -> 9 ;
10 [label="Temperature(F) <= 36.5\nentropy = 0.902\nsamples = 36\nvalue = [0, 4, 29, 3]\nclass = 3", fillcolor="#64b2eb"] ;
8 -> 10 ;
11 [label="Pressure(in) <= 20.825\nentropy = 0.61\nsamples = 20\nvalue = [0, 0, 17, 3]\nclass = 3", fillcolor="#5caeea"] ;
10 -> 11 ;
12 [label="entropy = 0.0\nsamples = 1\nvalue = [0, 0, 0, 1]\nclass = 4", fillcolor="#d739e5"] ;
11 -> 12 ;
13 [label="Wind_Speed(mph) <= 7.198\nentropy = 0.485\nsamples = 19\nvalue = [0, 0, 17, 2]\nclass = 3", fillcolor="#50a9e8"] ;
11 -> 13 ;
14 [label="Wind_Chill(F) <= 4.0\nentropy = 0.722\nsamples = 10\nvalue = [0, 0, 8, 2]\nclass = 3", fillcolor="#6ab6ec"] ;
13 -> 14 ;
15 [label="entropy = 0.0\nsamples = 1\nvalue = [0, 0, 0, 1]\nclass = 4", fillcolor="#d739e5"] ;
14 -> 15 ;
16 [label="Humidity(%) <= 33.5\nentropy = 0.503\nsamples = 9\nvalue = [0, 0, 8, 1]\nclass = 3", fillcolor="#52a9e8"] ;
14 -> 16 ;
17 [label="Wind_Speed(mph) <= 3.5\nentropy = 1.0\nsamples = 2\nvalue = [0, 0, 1, 1]\nclass = 3", fillcolor="#ffffff"] ;
16 -> 17 ;
18 [label="entropy = 0.0\nsamples = 1\nvalue = [0, 0, 1, 0]\nclass = 3", fillcolor="#399de5"] ;
17 -> 18 ;
19 [label="entropy = 0.0\nsamples = 1\nvalue = [0, 0, 0, 1]\nclass = 4", fillcolor="#d739e5"] ;
17 -> 19 ;
20 [label="entropy = 0.0\nsamples = 7\nvalue = [0, 0, 7, 0]\nclass = 3", fillcolor="#399de5"] ;
16 -> 20 ;
21 [label="entropy = 0.0\nsamples = 9\nvalue = [0, 0, 9, 0]\nclass = 3", fillcolor="#399de5"] ;
13 -> 21 ;
22 [label="Humidity(%) <= 53.5\nentropy = 0.811\nsamples = 16\nvalue = [0, 4, 12, 0]\nclass = 3", fillcolor="#7bbeee"] ;
10 -> 22 ;
23 [label="Wind_Chill(F) <= 71.0\nentropy = 0.592\nsamples = 14\nvalue = [0, 2, 12, 0]\nclass = 3", fillcolor="#5aade9"] ;
22 -> 23 ;
24 [label="Wind_Speed(mph) <= 4.5\nentropy = 0.391\nsamples = 13\nvalue = [0, 1, 12, 0]\nclass = 3", fillcolor="#49a5e7"] ;
23 -> 24 ;
25 [label="Pressure(in) <= 20.925\nentropy = 1.0\nsamples = 2\nvalue = [0, 1, 1, 0]\nclass = 2", fillcolor="#ffffff"] ;
24 -> 25 ;
26 [label="entropy = 0.0\nsamples = 1\nvalue = [0, 0, 1, 0]\nclass = 3", fillcolor="#399de5"] ;
25 -> 26 ;
27 [label="entropy = 0.0\nsamples = 1\nvalue = [0, 1, 0, 0]\nclass = 2", fillcolor="#47e539"] ;
25 -> 27 ;
28 [label="entropy = 0.0\nsamples = 11\nvalue = [0, 0, 11, 0]\nclass = 3", fillcolor="#399de5"] ;
24 -> 28 ;
29 [label="entropy = 0.0\nsamples = 1\nvalue = [0, 1, 0, 0]\nclass = 2", fillcolor="#47e539"] ;
23 -> 29 ;
30 [label="entropy = 0.0\nsamples = 2\nvalue = [0, 2, 0, 0]\nclass = 2", fillcolor="#47e539"] ;
22 -> 30 ;
31 [label="Pressure(in) <= 24.115\nentropy = 1.266\nsamples = 3005\nvalue = [104, 1339, 1523, 39]\nclass = 3", fillcolor="#e9f4fc"] ;
5 -> 31 ;
32 [label="Pressure(in) <= 23.605\nentropy = 1.206\nsamples = 990\nvalue = [26, 574, 377, 13]\nclass = 2", fillcolor="#c4f7bf"] ;
31 -> 32 ;
33 [label="Pressure(in) <= 23.145\nentropy = 1.255\nsamples = 397\nvalue = [9, 165, 214, 9]\nclass = 3", fillcolor="#d5eafa"] ;
32 -> 33 ;
34 [label="Wind_Chill(F) <= 27.5\nentropy = 1.139\nsamples = 174\nvalue = [0, 99, 70, 5]\nclass = 2", fillcolor="#ccf8c8"] ;
33 -> 34 ;
35 [label="Pressure(in) <= 22.975\nentropy = 0.907\nsamples = 76\nvalue = [0, 56, 19, 1]\nclass = 2", fillcolor="#88ee7e"] ;
34 -> 35 ;
36 [label="Temperature(F) <= 29.0\nentropy = 0.749\nsamples = 42\nvalue = [0, 35, 6, 1]\nclass = 2", fillcolor="#6bea60"] ;
35 -> 36 ;
37 [label="Temperature(F) <= -0.5\nentropy = 0.242\nsamples = 25\nvalue = [0, 24, 1, 0]\nclass = 2", fillcolor="#4fe641"] ;
36 -> 37 ;
38 [label="entropy = 0.0\nsamples = 1\nvalue = [0, 0, 1, 0]\nclass = 3", fillcolor="#399de5"] ;
37 -> 38 ;
39 [label="entropy = 0.0\nsamples = 24\nvalue = [0, 24, 0, 0]\nclass = 2", fillcolor="#47e539"] ;
37 -> 39 ;
40 [label="Wind_Speed(mph) <= 17.5\nentropy = 1.166\nsamples = 17\nvalue = [0, 11, 5, 1]\nclass = 2", fillcolor="#a3f29c"] ;
36 -> 40 ;
41 [label="Humidity(%) <= 69.5\nentropy = 1.296\nsamples = 13\nvalue = [0, 7, 5, 1]\nclass = 2", fillcolor="#d1f8ce"] ;
40 -> 41 ;
42 [label="Humidity(%) <= 40.5\nentropy = 1.361\nsamples = 10\nvalue = [0, 4, 5, 1]\nclass = 3", fillcolor="#deeffb"] ;
41 -> 42 ;
43 [label="entropy = 0.0\nsamples = 2\nvalue = [0, 2, 0, 0]\nclass = 2", fillcolor="#47e539"] ;
42 -> 43 ;
44 [label="entropy = 1.299\nsamples = 8\nvalue = [0, 2, 5, 1]\nclass = 3", fillcolor="#9ccef2"] ;
42 -> 44 ;
45 [label="entropy = 0.0\nsamples = 3\nvalue = [0, 3, 0, 0]\nclass = 2", fillcolor="#47e539"] ;
41 -> 45 ;
46 [label="entropy = 0.0\nsamples = 4\nvalue = [0, 4, 0, 0]\nclass = 2", fillcolor="#47e539"] ;
40 -> 46 ;
47 [label="Visibility(mi) <= 1.5\nentropy = 0.96\nsamples = 34\nvalue = [0, 21, 13, 0]\nclass = 2", fillcolor="#b9f5b4"] ;
35 -> 47 ;
48 [label="entropy = 0.0\nsamples = 5\nvalue = [0, 5, 0, 0]\nclass = 2", fillcolor="#47e539"] ;
47 -> 48 ;
49 [label="Humidity(%) <= 77.0\nentropy = 0.992\nsamples = 29\nvalue = [0, 16, 13, 0]\nclass = 2", fillcolor="#dcfada"] ;
47 -> 49 ;
50 [label="Humidity(%) <= 56.5\nentropy = 0.837\nsamples = 15\nvalue = [0, 11, 4, 0]\nclass = 2", fillcolor="#8aee81"] ;
49 -> 50 ;
51 [label="Wind_Speed(mph) <= 5.5\nentropy = 0.946\nsamples = 11\nvalue = [0, 7, 4, 0]\nclass = 2", fillcolor="#b0f4aa"] ;
50 -> 51 ;
52 [label="entropy = 0.0\nsamples = 2\nvalue = [0, 0, 2, 0]\nclass = 3", fillcolor="#399de5"] ;
51 -> 52 ;
53 [label="entropy = 0.764\nsamples = 9\nvalue = [0, 7, 2, 0]\nclass = 2", fillcolor="#7cec72"] ;
51 -> 53 ;
54 [label="entropy = 0.0\nsamples = 4\nvalue = [0, 4, 0, 0]\nclass = 2", fillcolor="#47e539"] ;
50 -> 54 ;
55 [label="Visibility(mi) <= 8.0\nentropy = 0.94\nsamples = 14\nvalue = [0, 5, 9, 0]\nclass = 3", fillcolor="#a7d3f3"] ;
49 -> 55 ;
56 [label="Pressure(in) <= 23.03\nentropy = 0.918\nsamples = 6\nvalue = [0, 4, 2, 0]\nclass = 2", fillcolor="#a3f29c"] ;
55 -> 56 ;
57 [label="entropy = 0.0\nsamples = 2\nvalue = [0, 0, 2, 0]\nclass = 3", fillcolor="#399de5"] ;
56 -> 57 ;
58 [label="entropy = 0.0\nsamples = 4\nvalue = [0, 4, 0, 0]\nclass = 2", fillcolor="#47e539"] ;
56 -> 58 ;
59 [label="Wind_Speed(mph) <= 5.0\nentropy = 0.544\nsamples = 8\nvalue = [0, 1, 7, 0]\nclass = 3", fillcolor="#55abe9"] ;
55 -> 59 ;
60 [label="entropy = 0.0\nsamples = 1\nvalue = [0, 1, 0, 0]\nclass = 2", fillcolor="#47e539"] ;
59 -> 60 ;
61 [label="entropy = 0.0\nsamples = 7\nvalue = [0, 0, 7, 0]\nclass = 3", fillcolor="#399de5"] ;
59 -> 61 ;
62 [label="Humidity(%) <= 25.5\nentropy = 1.2\nsamples = 98\nvalue = [0, 43, 51, 4]\nclass = 3", fillcolor="#e2f1fb"] ;
34 -> 62 ;
63 [label="Wind_Speed(mph) <= 19.0\nentropy = 1.3\nsamples = 36\nvalue = [0, 22, 10, 4]\nclass = 2", fillcolor="#aaf3a4"] ;
62 -> 63 ;
64 [label="Wind_Speed(mph) <= 4.5\nentropy = 1.311\nsamples = 25\nvalue = [0, 13, 10, 2]\nclass = 2", fillcolor="#dafad7"] ;
63 -> 64 ;
65 [label="Pressure(in) <= 22.645\nentropy = 0.65\nsamples = 6\nvalue = [0, 5, 0, 1]\nclass = 2", fillcolor="#6cea61"] ;
64 -> 65 ;
66 [label="entropy = 0.0\nsamples = 1\nvalue = [0, 0, 0, 1]\nclass = 4", fillcolor="#d739e5"] ;
65 -> 66 ;
67 [label="entropy = 0.0\nsamples = 5\nvalue = [0, 5, 0, 0]\nclass = 2", fillcolor="#47e539"] ;
65 -> 67 ;
68 [label="Humidity(%) <= 12.5\nentropy = 1.236\nsamples = 19\nvalue = [0, 8, 10, 1]\nclass = 3", fillcolor="#dbedfa"] ;
64 -> 68 ;
69 [label="Humidity(%) <= 11.0\nentropy = 1.371\nsamples = 5\nvalue = [0, 3, 1, 1]\nclass = 2", fillcolor="#a3f29c"] ;
68 -> 69 ;
70 [label="entropy = 0.811\nsamples = 4\nvalue = [0, 3, 1, 0]\nclass = 2", fillcolor="#84ee7b"] ;
69 -> 70 ;
71 [label="entropy = 0.0\nsamples = 1\nvalue = [0, 0, 0, 1]\nclass = 4", fillcolor="#d739e5"] ;
69 -> 71 ;
72 [label="Temperature(F) <= 53.5\nentropy = 0.94\nsamples = 14\nvalue = [0, 5, 9, 0]\nclass = 3", fillcolor="#a7d3f3"] ;
68 -> 72 ;
73 [label="entropy = 0.0\nsamples = 2\nvalue = [0, 2, 0, 0]\nclass = 2", fillcolor="#47e539"] ;
72 -> 73 ;
74 [label="entropy = 0.811\nsamples = 12\nvalue = [0, 3, 9, 0]\nclass = 3", fillcolor="#7bbeee"] ;
72 -> 74 ;
75 [label="Pressure(in) <= 23.1\nentropy = 0.684\nsamples = 11\nvalue = [0, 9, 0, 2]\nclass = 2", fillcolor="#70eb65"] ;
63 -> 75 ;
76 [label="entropy = 0.0\nsamples = 9\nvalue = [0, 9, 0, 0]\nclass = 2", fillcolor="#47e539"] ;
75 -> 76 ;
77 [label="entropy = 0.0\nsamples = 2\nvalue = [0, 0, 0, 2]\nclass = 4", fillcolor="#d739e5"] ;
75 -> 77 ;
78 [label="Stop <= 0.5\nentropy = 0.924\nsamples = 62\nvalue = [0, 21, 41, 0]\nclass = 3", fillcolor="#9ecff2"] ;
62 -> 78 ;
79 [label="Wind_Chill(F) <= 58.0\nentropy = 0.838\nsamples = 56\nvalue = [0, 15, 41, 0]\nclass = 3", fillcolor="#81c1ef"] ;
78 -> 79 ;
80 [label="Visibility(mi) <= 8.5\nentropy = 0.933\nsamples = 43\nvalue = [0, 15, 28, 0]\nclass = 3", fillcolor="#a3d2f3"] ;
79 -> 80 ;
81 [label="entropy = 0.0\nsamples = 4\nvalue = [0, 4, 0, 0]\nclass = 2", fillcolor="#47e539"] ;
80 -> 81 ;
82 [label="Wind_Speed(mph) <= 15.5\nentropy = 0.858\nsamples = 39\nvalue = [0, 11, 28, 0]\nclass = 3", fillcolor="#87c4ef"] ;
80 -> 82 ;
83 [label="entropy = 0.516\nsamples = 26\nvalue = [0, 3, 23, 0]\nclass = 3", fillcolor="#53aae8"] ;
82 -> 83 ;
84 [label="entropy = 0.961\nsamples = 13\nvalue = [0, 8, 5, 0]\nclass = 2", fillcolor="#baf5b5"] ;
82 -> 84 ;
85 [label="entropy = 0.0\nsamples = 13\nvalue = [0, 0, 13, 0]\nclass = 3", fillcolor="#399de5"] ;
79 -> 85 ;
86 [label="entropy = 0.0\nsamples = 6\nvalue = [0, 6, 0, 0]\nclass = 2", fillcolor="#47e539"] ;
78 -> 86 ;
87 [label="Temperature(F) <= 26.5\nentropy = 1.218\nsamples = 223\nvalue = [9, 66, 144, 4]\nclass = 3", fillcolor="#9dcef2"] ;
33 -> 87 ;
88 [label="entropy = 0.0\nsamples = 24\nvalue = [0, 0, 24, 0]\nclass = 3", fillcolor="#399de5"] ;
87 -> 88 ;
89 [label="Wind_Chill(F) <= 21.5\nentropy = 1.283\nsamples = 199\nvalue = [9, 66, 120, 4]\nclass = 3", fillcolor="#afd7f4"] ;
87 -> 89 ;
90 [label="Wind_Speed(mph) <= 18.5\nentropy = 1.379\nsamples = 7\nvalue = [4, 1, 2, 0]\nclass = 1", fillcolor="#f5cdb0"] ;
89 -> 90 ;
91 [label="Temperature(F) <= 30.5\nentropy = 0.722\nsamples = 5\nvalue = [4, 1, 0, 0]\nclass = 1", fillcolor="#eca06a"] ;
90 -> 91 ;
92 [label="entropy = 0.0\nsamples = 1\nvalue = [0, 1, 0, 0]\nclass = 2", fillcolor="#47e539"] ;
91 -> 92 ;
93 [label="entropy = 0.0\nsamples = 4\nvalue = [4, 0, 0, 0]\nclass = 1", fillcolor="#e58139"] ;
91 -> 93 ;
94 [label="entropy = 0.0\nsamples = 2\nvalue = [0, 0, 2, 0]\nclass = 3", fillcolor="#399de5"] ;
90 -> 94 ;
95 [label="Stop <= 0.5\nentropy = 1.214\nsamples = 192\nvalue = [5, 65, 118, 4]\nclass = 3", fillcolor="#acd6f4"] ;
89 -> 95 ;
96 [label="Humidity(%) <= 24.5\nentropy = 1.199\nsamples = 185\nvalue = [5, 58, 118, 4]\nclass = 3", fillcolor="#a1d1f3"] ;
95 -> 96 ;
97 [label="Wind_Speed(mph) <= 17.5\nentropy = 1.459\nsamples = 51\nvalue = [3, 24, 22, 2]\nclass = 2", fillcolor="#f2fdf1"] ;
96 -> 97 ;
98 [label="Pressure(in) <= 23.225\nentropy = 1.213\nsamples = 46\nvalue = [0, 23, 21, 2]\nclass = 2", fillcolor="#f0fdef"] ;
97 -> 98 ;
99 [label="entropy = 0.906\nsamples = 15\nvalue = [0, 12, 2, 1]\nclass = 2", fillcolor="#71eb67"] ;
98 -> 99 ;
100 [label="entropy = 1.123\nsamples = 31\nvalue = [0, 11, 19, 1]\nclass = 3", fillcolor="#b0d8f5"] ;
98 -> 100 ;
101 [label="Temperature(F) <= 62.5\nentropy = 1.371\nsamples = 5\nvalue = [3, 1, 1, 0]\nclass = 1", fillcolor="#f2c09c"] ;
97 -> 101 ;
102 [label="entropy = 0.0\nsamples = 1\nvalue = [0, 1, 0, 0]\nclass = 2", fillcolor="#47e539"] ;
101 -> 102 ;
103 [label="entropy = 0.811\nsamples = 4\nvalue = [3, 0, 1, 0]\nclass = 1", fillcolor="#eeab7b"] ;
101 -> 103 ;
104 [label="Pressure(in) <= 23.285\nentropy = 1.028\nsamples = 134\nvalue = [2, 34, 96, 2]\nclass = 3", fillcolor="#84c2ef"] ;
96 -> 104 ;
105 [label="Wind_Chill(F) <= 29.5\nentropy = 0.538\nsamples = 65\nvalue = [0, 8, 57, 0]\nclass = 3", fillcolor="#55abe9"] ;
104 -> 105 ;
106 [label="entropy = 0.0\nsamples = 12\nvalue = [0, 0, 12, 0]\nclass = 3", fillcolor="#399de5"] ;
105 -> 106 ;
107 [label="entropy = 0.612\nsamples = 53\nvalue = [0, 8, 45, 0]\nclass = 3", fillcolor="#5caeea"] ;
105 -> 107 ;
108 [label="Wind_Speed(mph) <= 1.5\nentropy = 1.292\nsamples = 69\nvalue = [2, 26, 39, 2]\nclass = 3", fillcolor="#c3e1f7"] ;
104 -> 108 ;
109 [label="entropy = 1.592\nsamples = 16\nvalue = [2, 9, 4, 1]\nclass = 2", fillcolor="#b2f4ac"] ;
108 -> 109 ;
110 [label="entropy = 1.03\nsamples = 53\nvalue = [0, 17, 35, 1]\nclass = 3", fillcolor="#9ccef2"] ;
108 -> 110 ;
111 [label="entropy = 0.0\nsamples = 7\nvalue = [0, 7, 0, 0]\nclass = 2", fillcolor="#47e539"] ;
95 -> 111 ;
112 [label="Humidity(%) <= 52.5\nentropy = 1.077\nsamples = 593\nvalue = [17, 409, 163, 4]\nclass = 2", fillcolor="#96f08e"] ;
32 -> 112 ;
113 [label="Humidity(%) <= 15.5\nentropy = 1.343\nsamples = 267\nvalue = [16, 145, 102, 4]\nclass = 2", fillcolor="#cff8cb"] ;
112 -> 113 ;
114 [label="Pressure(in) <= 23.905\nentropy = 1.63\nsamples = 58\nvalue = [7, 31, 16, 4]\nclass = 2", fillcolor="#bdf6b8"] ;
113 -> 114 ;
115 [label="Pressure(in) <= 23.895\nentropy = 1.889\nsamples = 15\nvalue = [4, 6, 2, 3]\nclass = 2", fillcolor="#defadb"] ;
114 -> 115 ;
116 [label="Humidity(%) <= 14.0\nentropy = 1.73\nsamples = 12\nvalue = [1, 6, 2, 3]\nclass = 2", fillcolor="#c2f6bd"] ;
115 -> 116 ;
117 [label="Pressure(in) <= 23.85\nentropy = 1.53\nsamples = 9\nvalue = [0, 4, 2, 3]\nclass = 2", fillcolor="#e0fbde"] ;
116 -> 117 ;
118 [label="Humidity(%) <= 12.5\nentropy = 1.406\nsamples = 8\nvalue = [0, 4, 1, 3]\nclass = 2", fillcolor="#dafad7"] ;
117 -> 118 ;
119 [label="entropy = 0.985\nsamples = 7\nvalue = [0, 4, 0, 3]\nclass = 2", fillcolor="#d1f8ce"] ;
118 -> 119 ;
120 [label="entropy = 0.0\nsamples = 1\nvalue = [0, 0, 1, 0]\nclass = 3", fillcolor="#399de5"] ;
118 -> 120 ;
121 [label="entropy = 0.0\nsamples = 1\nvalue = [0, 0, 1, 0]\nclass = 3", fillcolor="#399de5"] ;
117 -> 121 ;
122 [label="Pressure(in) <= 23.795\nentropy = 0.918\nsamples = 3\nvalue = [1, 2, 0, 0]\nclass = 2", fillcolor="#a3f29c"] ;
116 -> 122 ;
123 [label="entropy = 0.0\nsamples = 1\nvalue = [1, 0, 0, 0]\nclass = 1", fillcolor="#e58139"] ;
122 -> 123 ;
124 [label="entropy = 0.0\nsamples = 2\nvalue = [0, 2, 0, 0]\nclass = 2", fillcolor="#47e539"] ;
122 -> 124 ;
125 [label="entropy = 0.0\nsamples = 3\nvalue = [3, 0, 0, 0]\nclass = 1", fillcolor="#e58139"] ;
115 -> 125 ;
126 [label="Humidity(%) <= 13.5\nentropy = 1.376\nsamples = 43\nvalue = [3, 25, 14, 1]\nclass = 2", fillcolor="#b9f5b4"] ;
114 -> 126 ;
127 [label="Temperature(F) <= 75.5\nentropy = 1.146\nsamples = 34\nvalue = [1, 19, 14, 0]\nclass = 2", fillcolor="#d1f8ce"] ;
126 -> 127 ;
128 [label="Wind_Speed(mph) <= 12.5\nentropy = 0.845\nsamples = 11\nvalue = [0, 3, 8, 0]\nclass = 3", fillcolor="#83c2ef"] ;
127 -> 128 ;
129 [label="Pressure(in) <= 24.035\nentropy = 0.971\nsamples = 5\nvalue = [0, 3, 2, 0]\nclass = 2", fillcolor="#c2f6bd"] ;
128 -> 129 ;
130 [label="entropy = 0.0\nsamples = 2\nvalue = [0, 2, 0, 0]\nclass = 2", fillcolor="#47e539"] ;
129 -> 130 ;
131 [label="entropy = 0.918\nsamples = 3\nvalue = [0, 1, 2, 0]\nclass = 3", fillcolor="#9ccef2"] ;
129 -> 131 ;
132 [label="entropy = 0.0\nsamples = 6\nvalue = [0, 0, 6, 0]\nclass = 3", fillcolor="#399de5"] ;
128 -> 132 ;
133 [label="Wind_Speed(mph) <= 10.0\nentropy = 1.067\nsamples = 23\nvalue = [1, 16, 6, 0]\nclass = 2", fillcolor="#93f08b"] ;
127 -> 133 ;
134 [label="Temperature(F) <= 92.0\nentropy = 1.5\nsamples = 4\nvalue = [1, 1, 2, 0]\nclass = 3", fillcolor="#bddef6"] ;
133 -> 134 ;
135 [label="entropy = 0.0\nsamples = 1\nvalue = [0, 0, 1, 0]\nclass = 3", fillcolor="#399de5"] ;
134 -> 135 ;
136 [label="entropy = 1.585\nsamples = 3\nvalue = [1, 1, 1, 0]\nclass = 1", fillcolor="#ffffff"] ;
134 -> 136 ;
137 [label="Visibility(mi) <= 20.0\nentropy = 0.742\nsamples = 19\nvalue = [0, 15, 4, 0]\nclass = 2", fillcolor="#78ec6e"] ;
133 -> 137 ;
138 [label="entropy = 0.523\nsamples = 17\nvalue = [0, 15, 2, 0]\nclass = 2", fillcolor="#60e853"] ;
137 -> 138 ;
139 [label="entropy = 0.0\nsamples = 2\nvalue = [0, 0, 2, 0]\nclass = 3", fillcolor="#399de5"] ;
137 -> 139 ;
140 [label="Wind_Chill(F) <= 66.5\nentropy = 1.224\nsamples = 9\nvalue = [2, 6, 0, 1]\nclass = 2", fillcolor="#96f08e"] ;
126 -> 140 ;
141 [label="entropy = 0.0\nsamples = 1\nvalue = [0, 0, 0, 1]\nclass = 4", fillcolor="#d739e5"] ;
140 -> 141 ;
142 [label="Temperature(F) <= 75.5\nentropy = 0.811\nsamples = 8\nvalue = [2, 6, 0, 0]\nclass = 2", fillcolor="#84ee7b"] ;
140 -> 142 ;
143 [label="entropy = 0.0\nsamples = 4\nvalue = [0, 4, 0, 0]\nclass = 2", fillcolor="#47e539"] ;
142 -> 143 ;
144 [label="Wind_Chill(F) <= 85.0\nentropy = 1.0\nsamples = 4\nvalue = [2, 2, 0, 0]\nclass = 1", fillcolor="#ffffff"] ;
142 -> 144 ;
145 [label="entropy = 0.0\nsamples = 2\nvalue = [2, 0, 0, 0]\nclass = 1", fillcolor="#e58139"] ;
144 -> 145 ;
146 [label="entropy = 0.0\nsamples = 2\nvalue = [0, 2, 0, 0]\nclass = 2", fillcolor="#47e539"] ;
144 -> 146 ;
147 [label="Wind_Chill(F) <= 70.5\nentropy = 1.2\nsamples = 209\nvalue = [9, 114, 86, 0]\nclass = 2", fillcolor="#d5f9d2"] ;
113 -> 147 ;
148 [label="Temperature(F) <= 42.5\nentropy = 1.208\nsamples = 164\nvalue = [9, 97, 58, 0]\nclass = 2", fillcolor="#bbf5b6"] ;
147 -> 148 ;
149 [label="Wind_Speed(mph) <= 7.5\nentropy = 0.967\nsamples = 33\nvalue = [0, 13, 20, 0]\nclass = 3", fillcolor="#baddf6"] ;
148 -> 149 ;
150 [label="Humidity(%) <= 46.0\nentropy = 0.742\nsamples = 19\nvalue = [0, 4, 15, 0]\nclass = 3", fillcolor="#6eb7ec"] ;
149 -> 150 ;
151 [label="entropy = 0.0\nsamples = 10\nvalue = [0, 0, 10, 0]\nclass = 3", fillcolor="#399de5"] ;
150 -> 151 ;
152 [label="Wind_Chill(F) <= 30.5\nentropy = 0.991\nsamples = 9\nvalue = [0, 4, 5, 0]\nclass = 3", fillcolor="#d7ebfa"] ;
150 -> 152 ;
153 [label="entropy = 0.65\nsamples = 6\nvalue = [0, 1, 5, 0]\nclass = 3", fillcolor="#61b1ea"] ;
152 -> 153 ;
154 [label="entropy = 0.0\nsamples = 3\nvalue = [0, 3, 0, 0]\nclass = 2", fillcolor="#47e539"] ;
152 -> 154 ;
155 [label="Pressure(in) <= 23.97\nentropy = 0.94\nsamples = 14\nvalue = [0, 9, 5, 0]\nclass = 2", fillcolor="#adf3a7"] ;
149 -> 155 ;
156 [label="entropy = 0.0\nsamples = 8\nvalue = [0, 8, 0, 0]\nclass = 2", fillcolor="#47e539"] ;
155 -> 156 ;
157 [label="Temperature(F) <= 36.5\nentropy = 0.65\nsamples = 6\nvalue = [0, 1, 5, 0]\nclass = 3", fillcolor="#61b1ea"] ;
155 -> 157 ;
158 [label="entropy = 0.0\nsamples = 4\nvalue = [0, 0, 4, 0]\nclass = 3", fillcolor="#399de5"] ;
157 -> 158 ;
159 [label="entropy = 1.0\nsamples = 2\nvalue = [0, 1, 1, 0]\nclass = 2", fillcolor="#ffffff"] ;
157 -> 159 ;
160 [label="Visibility(mi) <= 12.5\nentropy = 1.194\nsamples = 131\nvalue = [9, 84, 38, 0]\nclass = 2", fillcolor="#a4f29d"] ;
148 -> 160 ;
161 [label="Junction <= 0.5\nentropy = 1.162\nsamples = 125\nvalue = [9, 84, 32, 0]\nclass = 2", fillcolor="#98f090"] ;
160 -> 161 ;
162 [label="Wind_Speed(mph) <= 4.0\nentropy = 1.083\nsamples = 117\nvalue = [7, 83, 27, 0]\nclass = 2", fillcolor="#8def84"] ;
161 -> 162 ;
163 [label="entropy = 1.236\nsamples = 24\nvalue = [5, 16, 3, 0]\nclass = 2", fillcolor="#94f08c"] ;
162 -> 163 ;
164 [label="entropy = 0.964\nsamples = 93\nvalue = [2, 67, 24, 0]\nclass = 2", fillcolor="#8cef84"] ;
162 -> 164 ;
165 [label="Humidity(%) <= 32.0\nentropy = 1.299\nsamples = 8\nvalue = [2, 1, 5, 0]\nclass = 3", fillcolor="#9ccef2"] ;
161 -> 165 ;
166 [label="entropy = 0.0\nsamples = 4\nvalue = [0, 0, 4, 0]\nclass = 3", fillcolor="#399de5"] ;
165 -> 166 ;
167 [label="entropy = 1.5\nsamples = 4\nvalue = [2, 1, 1, 0]\nclass = 1", fillcolor="#f6d5bd"] ;
165 -> 167 ;
168 [label="entropy = 0.0\nsamples = 6\nvalue = [0, 0, 6, 0]\nclass = 3", fillcolor="#399de5"] ;
160 -> 168 ;
169 [label="Wind_Chill(F) <= 71.5\nentropy = 0.956\nsamples = 45\nvalue = [0, 17, 28, 0]\nclass = 3", fillcolor="#b1d8f5"] ;
147 -> 169 ;
170 [label="entropy = 0.0\nsamples = 7\nvalue = [0, 0, 7, 0]\nclass = 3", fillcolor="#399de5"] ;
169 -> 170 ;
171 [label="Wind_Speed(mph) <= 6.5\nentropy = 0.992\nsamples = 38\nvalue = [0, 17, 21, 0]\nclass = 3", fillcolor="#d9ecfa"] ;
169 -> 171 ;
172 [label="Wind_Chill(F) <= 83.5\nentropy = 0.764\nsamples = 9\nvalue = [0, 7, 2, 0]\nclass = 2", fillcolor="#7cec72"] ;
171 -> 172 ;
173 [label="Wind_Chill(F) <= 72.5\nentropy = 0.544\nsamples = 8\nvalue = [0, 7, 1, 0]\nclass = 2", fillcolor="#61e955"] ;
172 -> 173 ;
174 [label="entropy = 1.0\nsamples = 2\nvalue = [0, 1, 1, 0]\nclass = 2", fillcolor="#ffffff"] ;
173 -> 174 ;
175 [label="entropy = 0.0\nsamples = 6\nvalue = [0, 6, 0, 0]\nclass = 2", fillcolor="#47e539"] ;
173 -> 175 ;
176 [label="entropy = 0.0\nsamples = 1\nvalue = [0, 0, 1, 0]\nclass = 3", fillcolor="#399de5"] ;
172 -> 176 ;
177 [label="Humidity(%) <= 29.5\nentropy = 0.929\nsamples = 29\nvalue = [0, 10, 19, 0]\nclass = 3", fillcolor="#a1d1f3"] ;
171 -> 177 ;
178 [label="Pressure(in) <= 23.75\nentropy = 0.988\nsamples = 23\nvalue = [0, 10, 13, 0]\nclass = 3", fillcolor="#d1e8f9"] ;
177 -> 178 ;
179 [label="entropy = 0.0\nsamples = 3\nvalue = [0, 0, 3, 0]\nclass = 3", fillcolor="#399de5"] ;
178 -> 179 ;
180 [label="entropy = 1.0\nsamples = 20\nvalue = [0, 10, 10, 0]\nclass = 2", fillcolor="#ffffff"] ;
178 -> 180 ;
181 [label="entropy = 0.0\nsamples = 6\nvalue = [0, 0, 6, 0]\nclass = 3", fillcolor="#399de5"] ;
177 -> 181 ;
182 [label="Wind_Chill(F) <= 14.5\nentropy = 0.725\nsamples = 326\nvalue = [1, 264, 61, 0]\nclass = 2", fillcolor="#72eb67"] ;
112 -> 182 ;
183 [label="Pressure(in) <= 23.865\nentropy = 0.998\nsamples = 34\nvalue = [0, 16, 18, 0]\nclass = 3", fillcolor="#e9f4fc"] ;
182 -> 183 ;
184 [label="Humidity(%) <= 86.0\nentropy = 0.811\nsamples = 12\nvalue = [0, 9, 3, 0]\nclass = 2", fillcolor="#84ee7b"] ;
183 -> 184 ;
185 [label="Wind_Speed(mph) <= 11.0\nentropy = 0.469\nsamples = 10\nvalue = [0, 9, 1, 0]\nclass = 2", fillcolor="#5be84f"] ;
184 -> 185 ;
186 [label="entropy = 0.0\nsamples = 8\nvalue = [0, 8, 0, 0]\nclass = 2", fillcolor="#47e539"] ;
185 -> 186 ;
187 [label="Pressure(in) <= 23.77\nentropy = 1.0\nsamples = 2\nvalue = [0, 1, 1, 0]\nclass = 2", fillcolor="#ffffff"] ;
185 -> 187 ;
188 [label="entropy = 0.0\nsamples = 1\nvalue = [0, 0, 1, 0]\nclass = 3", fillcolor="#399de5"] ;
187 -> 188 ;
189 [label="entropy = 0.0\nsamples = 1\nvalue = [0, 1, 0, 0]\nclass = 2", fillcolor="#47e539"] ;
187 -> 189 ;
190 [label="entropy = 0.0\nsamples = 2\nvalue = [0, 0, 2, 0]\nclass = 3", fillcolor="#399de5"] ;
184 -> 190 ;
191 [label="Visibility(mi) <= 5.0\nentropy = 0.902\nsamples = 22\nvalue = [0, 7, 15, 0]\nclass = 3", fillcolor="#95cbf1"] ;
183 -> 191 ;
192 [label="Humidity(%) <= 90.5\nentropy = 0.414\nsamples = 12\nvalue = [0, 1, 11, 0]\nclass = 3", fillcolor="#4ba6e7"] ;
191 -> 192 ;
193 [label="entropy = 0.0\nsamples = 10\nvalue = [0, 0, 10, 0]\nclass = 3", fillcolor="#399de5"] ;
192 -> 193 ;
194 [label="Junction <= 0.5\nentropy = 1.0\nsamples = 2\nvalue = [0, 1, 1, 0]\nclass = 2", fillcolor="#ffffff"] ;
192 -> 194 ;
195 [label="entropy = 0.0\nsamples = 1\nvalue = [0, 0, 1, 0]\nclass = 3", fillcolor="#399de5"] ;
194 -> 195 ;
196 [label="entropy = 0.0\nsamples = 1\nvalue = [0, 1, 0, 0]\nclass = 2", fillcolor="#47e539"] ;
194 -> 196 ;
197 [label="Wind_Chill(F) <= 6.5\nentropy = 0.971\nsamples = 10\nvalue = [0, 6, 4, 0]\nclass = 2", fillcolor="#c2f6bd"] ;
191 -> 197 ;
198 [label="entropy = 0.0\nsamples = 3\nvalue = [0, 0, 3, 0]\nclass = 3", fillcolor="#399de5"] ;
197 -> 198 ;
199 [label="Pressure(in) <= 23.995\nentropy = 0.592\nsamples = 7\nvalue = [0, 6, 1, 0]\nclass = 2", fillcolor="#66e95a"] ;
197 -> 199 ;
200 [label="Temperature(F) <= 21.0\nentropy = 1.0\nsamples = 2\nvalue = [0, 1, 1, 0]\nclass = 2", fillcolor="#ffffff"] ;
199 -> 200 ;
201 [label="entropy = 0.0\nsamples = 1\nvalue = [0, 1, 0, 0]\nclass = 2", fillcolor="#47e539"] ;
200 -> 201 ;
202 [label="entropy = 0.0\nsamples = 1\nvalue = [0, 0, 1, 0]\nclass = 3", fillcolor="#399de5"] ;
200 -> 202 ;
203 [label="entropy = 0.0\nsamples = 5\nvalue = [0, 5, 0, 0]\nclass = 2", fillcolor="#47e539"] ;
199 -> 203 ;
204 [label="Pressure(in) <= 24.045\nentropy = 0.635\nsamples = 292\nvalue = [1, 248, 43, 0]\nclass = 2", fillcolor="#68ea5c"] ;
182 -> 204 ;
205 [label="Temperature(F) <= 47.5\nentropy = 0.454\nsamples = 217\nvalue = [1, 198, 18, 0]\nclass = 2", fillcolor="#59e74c"] ;
204 -> 205 ;
206 [label="Humidity(%) <= 69.5\nentropy = 0.331\nsamples = 200\nvalue = [1, 189, 10, 0]\nclass = 2", fillcolor="#52e744"] ;
205 -> 206 ;
207 [label="Humidity(%) <= 65.5\nentropy = 0.761\nsamples = 46\nvalue = [1, 38, 7, 0]\nclass = 2", fillcolor="#6dea62"] ;
206 -> 207 ;
208 [label="Humidity(%) <= 59.5\nentropy = 0.33\nsamples = 33\nvalue = [0, 31, 2, 0]\nclass = 2", fillcolor="#53e746"] ;
207 -> 208 ;
209 [label="entropy = 0.592\nsamples = 14\nvalue = [0, 12, 2, 0]\nclass = 2", fillcolor="#66e95a"] ;
208 -> 209 ;
210 [label="entropy = 0.0\nsamples = 19\nvalue = [0, 19, 0, 0]\nclass = 2", fillcolor="#47e539"] ;
208 -> 210 ;
211 [label="Pressure(in) <= 23.655\nentropy = 1.296\nsamples = 13\nvalue = [1, 7, 5, 0]\nclass = 2", fillcolor="#d1f8ce"] ;
207 -> 211 ;
212 [label="entropy = 0.0\nsamples = 1\nvalue = [1, 0, 0, 0]\nclass = 1", fillcolor="#e58139"] ;
211 -> 212 ;
213 [label="entropy = 0.98\nsamples = 12\nvalue = [0, 7, 5, 0]\nclass = 2", fillcolor="#caf8c6"] ;
211 -> 213 ;
214 [label="Temperature(F) <= 29.5\nentropy = 0.139\nsamples = 154\nvalue = [0, 151, 3, 0]\nclass = 2", fillcolor="#4be63d"] ;
206 -> 214 ;
215 [label="Pressure(in) <= 23.695\nentropy = 0.318\nsamples = 52\nvalue = [0, 49, 3, 0]\nclass = 2", fillcolor="#52e745"] ;
214 -> 215 ;
216 [label="entropy = 1.0\nsamples = 4\nvalue = [0, 2, 2, 0]\nclass = 2", fillcolor="#ffffff"] ;
215 -> 216 ;
217 [label="entropy = 0.146\nsamples = 48\nvalue = [0, 47, 1, 0]\nclass = 2", fillcolor="#4be63d"] ;
215 -> 217 ;
218 [label="entropy = 0.0\nsamples = 102\nvalue = [0, 102, 0, 0]\nclass = 2", fillcolor="#47e539"] ;
214 -> 218 ;
219 [label="Temperature(F) <= 61.4\nentropy = 0.998\nsamples = 17\nvalue = [0, 9, 8, 0]\nclass = 2", fillcolor="#ebfce9"] ;
205 -> 219 ;
220 [label="Wind_Speed(mph) <= 18.5\nentropy = 0.985\nsamples = 14\nvalue = [0, 6, 8, 0]\nclass = 3", fillcolor="#cee6f8"] ;
219 -> 220 ;
221 [label="Wind_Speed(mph) <= 11.0\nentropy = 0.918\nsamples = 12\nvalue = [0, 4, 8, 0]\nclass = 3", fillcolor="#9ccef2"] ;
220 -> 221 ;
222 [label="entropy = 0.991\nsamples = 9\nvalue = [0, 4, 5, 0]\nclass = 3", fillcolor="#d7ebfa"] ;
221 -> 222 ;
223 [label="entropy = 0.0\nsamples = 3\nvalue = [0, 0, 3, 0]\nclass = 3", fillcolor="#399de5"] ;
221 -> 223 ;
224 [label="entropy = 0.0\nsamples = 2\nvalue = [0, 2, 0, 0]\nclass = 2", fillcolor="#47e539"] ;
220 -> 224 ;
225 [label="entropy = 0.0\nsamples = 3\nvalue = [0, 3, 0, 0]\nclass = 2", fillcolor="#47e539"] ;
219 -> 225 ;
226 [label="Wind_Speed(mph) <= 5.5\nentropy = 0.918\nsamples = 75\nvalue = [0, 50, 25, 0]\nclass = 2", fillcolor="#a3f29c"] ;
204 -> 226 ;
227 [label="Temperature(F) <= 17.5\nentropy = 0.503\nsamples = 36\nvalue = [0, 32, 4, 0]\nclass = 2", fillcolor="#5ee852"] ;
226 -> 227 ;
228 [label="entropy = 0.0\nsamples = 2\nvalue = [0, 0, 2, 0]\nclass = 3", fillcolor="#399de5"] ;
227 -> 228 ;
229 [label="Humidity(%) <= 94.0\nentropy = 0.323\nsamples = 34\nvalue = [0, 32, 2, 0]\nclass = 2", fillcolor="#52e745"] ;
227 -> 229 ;
230 [label="Humidity(%) <= 57.5\nentropy = 0.201\nsamples = 32\nvalue = [0, 31, 1, 0]\nclass = 2", fillcolor="#4de63f"] ;
229 -> 230 ;
231 [label="entropy = 0.811\nsamples = 4\nvalue = [0, 3, 1, 0]\nclass = 2", fillcolor="#84ee7b"] ;
230 -> 231 ;
232 [label="entropy = 0.0\nsamples = 28\nvalue = [0, 28, 0, 0]\nclass = 2", fillcolor="#47e539"] ;
230 -> 232 ;
233 [label="Temperature(F) <= 32.0\nentropy = 1.0\nsamples = 2\nvalue = [0, 1, 1, 0]\nclass = 2", fillcolor="#ffffff"] ;
229 -> 233 ;
234 [label="entropy = 0.0\nsamples = 1\nvalue = [0, 0, 1, 0]\nclass = 3", fillcolor="#399de5"] ;
233 -> 234 ;
235 [label="entropy = 0.0\nsamples = 1\nvalue = [0, 1, 0, 0]\nclass = 2", fillcolor="#47e539"] ;
233 -> 235 ;
236 [label="Junction <= 0.5\nentropy = 0.996\nsamples = 39\nvalue = [0, 18, 21, 0]\nclass = 3", fillcolor="#e3f1fb"] ;
226 -> 236 ;
237 [label="Humidity(%) <= 56.5\nentropy = 0.994\nsamples = 33\nvalue = [0, 18, 15, 0]\nclass = 2", fillcolor="#e0fbde"] ;
236 -> 237 ;
238 [label="entropy = 0.0\nsamples = 3\nvalue = [0, 0, 3, 0]\nclass = 3", fillcolor="#399de5"] ;
237 -> 238 ;
239 [label="Humidity(%) <= 91.0\nentropy = 0.971\nsamples = 30\nvalue = [0, 18, 12, 0]\nclass = 2", fillcolor="#c2f6bd"] ;
237 -> 239 ;
240 [label="entropy = 0.742\nsamples = 19\nvalue = [0, 15, 4, 0]\nclass = 2", fillcolor="#78ec6e"] ;
239 -> 240 ;
241 [label="entropy = 0.845\nsamples = 11\nvalue = [0, 3, 8, 0]\nclass = 3", fillcolor="#83c2ef"] ;
239 -> 241 ;
242 [label="entropy = 0.0\nsamples = 6\nvalue = [0, 0, 6, 0]\nclass = 3", fillcolor="#399de5"] ;
236 -> 242 ;
243 [label="Visibility(mi) <= 11.0\nentropy = 1.256\nsamples = 2015\nvalue = [78, 765, 1146, 26]\nclass = 3", fillcolor="#c3e1f7"] ;
31 -> 243 ;
244 [label="Humidity(%) <= 53.5\nentropy = 1.286\nsamples = 1807\nvalue = [75, 727, 979, 26]\nclass = 3", fillcolor="#d1e8f9"] ;
243 -> 244 ;
245 [label="Wind_Chill(F) <= 41.5\nentropy = 1.256\nsamples = 1075\nvalue = [46, 374, 640, 15]\nclass = 3", fillcolor="#b4daf5"] ;
244 -> 245 ;
246 [label="Humidity(%) <= 47.5\nentropy = 0.895\nsamples = 233\nvalue = [8, 43, 182, 0]\nclass = 3", fillcolor="#6eb7ec"] ;
245 -> 246 ;
247 [label="Pressure(in) <= 24.475\nentropy = 0.808\nsamples = 184\nvalue = [8, 24, 152, 0]\nclass = 3", fillcolor="#61b1ea"] ;
246 -> 247 ;
248 [label="Wind_Chill(F) <= 38.5\nentropy = 0.699\nsamples = 142\nvalue = [8, 11, 123, 0]\nclass = 3", fillcolor="#56abe9"] ;
247 -> 248 ;
249 [label="Wind_Speed(mph) <= 1.5\nentropy = 0.48\nsamples = 118\nvalue = [2, 8, 108, 0]\nclass = 3", fillcolor="#4ba6e7"] ;
248 -> 249 ;
250 [label="Pressure(in) <= 24.175\nentropy = 0.991\nsamples = 9\nvalue = [0, 4, 5, 0]\nclass = 3", fillcolor="#d7ebfa"] ;
249 -> 250 ;
251 [label="entropy = 0.0\nsamples = 2\nvalue = [0, 2, 0, 0]\nclass = 2", fillcolor="#47e539"] ;
250 -> 251 ;
252 [label="entropy = 0.863\nsamples = 7\nvalue = [0, 2, 5, 0]\nclass = 3", fillcolor="#88c4ef"] ;
250 -> 252 ;
253 [label="Humidity(%) <= 44.5\nentropy = 0.358\nsamples = 109\nvalue = [2, 4, 103, 0]\nclass = 3", fillcolor="#44a3e6"] ;
249 -> 253 ;
254 [label="entropy = 0.274\nsamples = 85\nvalue = [0, 4, 81, 0]\nclass = 3", fillcolor="#43a2e6"] ;
253 -> 254 ;
255 [label="entropy = 0.414\nsamples = 24\nvalue = [2, 0, 22, 0]\nclass = 3", fillcolor="#4ba6e7"] ;
253 -> 255 ;
256 [label="Humidity(%) <= 37.5\nentropy = 1.299\nsamples = 24\nvalue = [6, 3, 15, 0]\nclass = 3", fillcolor="#9ccef2"] ;
248 -> 256 ;
257 [label="Junction <= 0.5\nentropy = 0.913\nsamples = 19\nvalue = [3, 1, 15, 0]\nclass = 3", fillcolor="#6ab6ec"] ;
256 -> 257 ;
258 [label="entropy = 0.337\nsamples = 16\nvalue = [0, 1, 15, 0]\nclass = 3", fillcolor="#46a4e7"] ;
257 -> 258 ;
259 [label="entropy = 0.0\nsamples = 3\nvalue = [3, 0, 0, 0]\nclass = 1", fillcolor="#e58139"] ;
257 -> 259 ;
260 [label="Humidity(%) <= 41.5\nentropy = 0.971\nsamples = 5\nvalue = [3, 2, 0, 0]\nclass = 1", fillcolor="#f6d5bd"] ;
256 -> 260 ;
261 [label="entropy = 0.0\nsamples = 3\nvalue = [3, 0, 0, 0]\nclass = 1", fillcolor="#e58139"] ;
260 -> 261 ;
262 [label="entropy = 0.0\nsamples = 2\nvalue = [0, 2, 0, 0]\nclass = 2", fillcolor="#47e539"] ;
260 -> 262 ;
263 [label="Junction <= 0.5\nentropy = 0.893\nsamples = 42\nvalue = [0, 13, 29, 0]\nclass = 3", fillcolor="#92c9f1"] ;
247 -> 263 ;
264 [label="Humidity(%) <= 32.5\nentropy = 0.79\nsamples = 38\nvalue = [0, 9, 29, 0]\nclass = 3", fillcolor="#76bbed"] ;
263 -> 264 ;
265 [label="entropy = 0.0\nsamples = 14\nvalue = [0, 0, 14, 0]\nclass = 3", fillcolor="#399de5"] ;
264 -> 265 ;
266 [label="Wind_Speed(mph) <= 10.5\nentropy = 0.954\nsamples = 24\nvalue = [0, 9, 15, 0]\nclass = 3", fillcolor="#b0d8f5"] ;
264 -> 266 ;
267 [label="entropy = 0.696\nsamples = 16\nvalue = [0, 3, 13, 0]\nclass = 3", fillcolor="#67b4eb"] ;
266 -> 267 ;
268 [label="entropy = 0.811\nsamples = 8\nvalue = [0, 6, 2, 0]\nclass = 2", fillcolor="#84ee7b"] ;
266 -> 268 ;
269 [label="entropy = 0.0\nsamples = 4\nvalue = [0, 4, 0, 0]\nclass = 2", fillcolor="#47e539"] ;
263 -> 269 ;
270 [label="Wind_Speed(mph) <= 15.0\nentropy = 0.963\nsamples = 49\nvalue = [0, 19, 30, 0]\nclass = 3", fillcolor="#b6dbf5"] ;
246 -> 270 ;
271 [label="Wind_Speed(mph) <= 5.5\nentropy = 0.918\nsamples = 45\nvalue = [0, 15, 30, 0]\nclass = 3", fillcolor="#9ccef2"] ;
270 -> 271 ;
272 [label="Pressure(in) <= 24.485\nentropy = 0.937\nsamples = 17\nvalue = [0, 11, 6, 0]\nclass = 2", fillcolor="#abf3a5"] ;
271 -> 272 ;
273 [label="Temperature(F) <= 40.0\nentropy = 1.0\nsamples = 12\nvalue = [0, 6, 6, 0]\nclass = 2", fillcolor="#ffffff"] ;
272 -> 273 ;
274 [label="entropy = 0.971\nsamples = 10\nvalue = [0, 6, 4, 0]\nclass = 2", fillcolor="#c2f6bd"] ;
273 -> 274 ;
275 [label="entropy = 0.0\nsamples = 2\nvalue = [0, 0, 2, 0]\nclass = 3", fillcolor="#399de5"] ;
273 -> 275 ;
276 [label="entropy = 0.0\nsamples = 5\nvalue = [0, 5, 0, 0]\nclass = 2", fillcolor="#47e539"] ;
272 -> 276 ;
277 [label="Temperature(F) <= 41.5\nentropy = 0.592\nsamples = 28\nvalue = [0, 4, 24, 0]\nclass = 3", fillcolor="#5aade9"] ;
271 -> 277 ;
278 [label="Wind_Speed(mph) <= 7.5\nentropy = 0.276\nsamples = 21\nvalue = [0, 1, 20, 0]\nclass = 3", fillcolor="#43a2e6"] ;
277 -> 278 ;
279 [label="entropy = 0.592\nsamples = 7\nvalue = [0, 1, 6, 0]\nclass = 3", fillcolor="#5aade9"] ;
278 -> 279 ;
280 [label="entropy = 0.0\nsamples = 14\nvalue = [0, 0, 14, 0]\nclass = 3", fillcolor="#399de5"] ;
278 -> 280 ;
281 [label="Wind_Chill(F) <= 40.0\nentropy = 0.985\nsamples = 7\nvalue = [0, 3, 4, 0]\nclass = 3", fillcolor="#cee6f8"] ;
277 -> 281 ;
282 [label="entropy = 0.0\nsamples = 3\nvalue = [0, 3, 0, 0]\nclass = 2", fillcolor="#47e539"] ;
281 -> 282 ;
283 [label="entropy = 0.0\nsamples = 4\nvalue = [0, 0, 4, 0]\nclass = 3", fillcolor="#399de5"] ;
281 -> 283 ;
284 [label="entropy = 0.0\nsamples = 4\nvalue = [0, 4, 0, 0]\nclass = 2", fillcolor="#47e539"] ;
270 -> 284 ;
285 [label="Pressure(in) <= 24.345\nentropy = 1.313\nsamples = 842\nvalue = [38, 331, 458, 15]\nclass = 3", fillcolor="#cee7f9"] ;
245 -> 285 ;
286 [label="Temperature(F) <= 66.5\nentropy = 1.382\nsamples = 447\nvalue = [28, 192, 219, 8]\nclass = 3", fillcolor="#eaf5fc"] ;
285 -> 286 ;
287 [label="Wind_Speed(mph) <= 7.5\nentropy = 1.313\nsamples = 224\nvalue = [7, 85, 125, 7]\nclass = 3", fillcolor="#c6e3f8"] ;
286 -> 287 ;
288 [label="Humidity(%) <= 23.5\nentropy = 1.086\nsamples = 101\nvalue = [4, 29, 68, 0]\nclass = 3", fillcolor="#94caf1"] ;
287 -> 288 ;
289 [label="Wind_Chill(F) <= 63.5\nentropy = 0.73\nsamples = 35\nvalue = [2, 3, 30, 0]\nclass = 3", fillcolor="#58ace9"] ;
288 -> 289 ;
290 [label="entropy = 0.381\nsamples = 27\nvalue = [2, 0, 25, 0]\nclass = 3", fillcolor="#49a5e7"] ;
289 -> 290 ;
291 [label="entropy = 0.954\nsamples = 8\nvalue = [0, 3, 5, 0]\nclass = 3", fillcolor="#b0d8f5"] ;
289 -> 291 ;
292 [label="Pressure(in) <= 24.135\nentropy = 1.141\nsamples = 66\nvalue = [2, 26, 38, 0]\nclass = 3", fillcolor="#c4e2f7"] ;
288 -> 292 ;
293 [label="entropy = 0.0\nsamples = 8\nvalue = [0, 0, 8, 0]\nclass = 3", fillcolor="#399de5"] ;
292 -> 293 ;
294 [label="entropy = 1.178\nsamples = 58\nvalue = [2, 26, 30, 0]\nclass = 3", fillcolor="#e6f3fc"] ;
292 -> 294 ;
295 [label="Junction <= 0.5\nentropy = 1.397\nsamples = 123\nvalue = [3, 56, 57, 7]\nclass = 3", fillcolor="#fcfeff"] ;
287 -> 295 ;
296 [label="Humidity(%) <= 37.5\nentropy = 1.303\nsamples = 108\nvalue = [2, 54, 48, 4]\nclass = 2", fillcolor="#edfceb"] ;
295 -> 296 ;
297 [label="entropy = 1.318\nsamples = 79\nvalue = [1, 34, 40, 4]\nclass = 3", fillcolor="#e5f2fc"] ;
296 -> 297 ;
298 [label="entropy = 1.05\nsamples = 29\nvalue = [1, 20, 8, 0]\nclass = 2", fillcolor="#96f08e"] ;
296 -> 298 ;
299 [label="Temperature(F) <= 54.5\nentropy = 1.555\nsamples = 15\nvalue = [1, 2, 9, 3]\nclass = 3", fillcolor="#9ccef2"] ;
295 -> 299 ;
300 [label="entropy = 0.0\nsamples = 6\nvalue = [0, 0, 6, 0]\nclass = 3", fillcolor="#399de5"] ;
299 -> 300 ;
301 [label="entropy = 1.891\nsamples = 9\nvalue = [1, 2, 3, 3]\nclass = 3", fillcolor="#ffffff"] ;
299 -> 301 ;
302 [label="Pressure(in) <= 24.175\nentropy = 1.39\nsamples = 223\nvalue = [21, 107, 94, 1]\nclass = 2", fillcolor="#ecfceb"] ;
286 -> 302 ;
303 [label="Humidity(%) <= 24.5\nentropy = 1.035\nsamples = 50\nvalue = [1, 16, 33, 0]\nclass = 3", fillcolor="#9ccef2"] ;
302 -> 303 ;
304 [label="Humidity(%) <= 15.5\nentropy = 0.929\nsamples = 40\nvalue = [1, 9, 30, 0]\nclass = 3", fillcolor="#79bded"] ;
303 -> 304 ;
305 [label="entropy = 1.253\nsamples = 17\nvalue = [1, 7, 9, 0]\nclass = 3", fillcolor="#d7ebfa"] ;
304 -> 305 ;
306 [label="entropy = 0.426\nsamples = 23\nvalue = [0, 2, 21, 0]\nclass = 3", fillcolor="#4ca6e7"] ;
304 -> 306 ;
307 [label="Humidity(%) <= 27.5\nentropy = 0.881\nsamples = 10\nvalue = [0, 7, 3, 0]\nclass = 2", fillcolor="#96f08e"] ;
303 -> 307 ;
308 [label="entropy = 0.0\nsamples = 5\nvalue = [0, 5, 0, 0]\nclass = 2", fillcolor="#47e539"] ;
307 -> 308 ;
309 [label="entropy = 0.971\nsamples = 5\nvalue = [0, 2, 3, 0]\nclass = 3", fillcolor="#bddef6"] ;
307 -> 309 ;
310 [label="Wind_Chill(F) <= 63.332\nentropy = 1.421\nsamples = 173\nvalue = [20, 91, 61, 1]\nclass = 2", fillcolor="#cef8ca"] ;
302 -> 310 ;
311 [label="entropy = 0.0\nsamples = 2\nvalue = [2, 0, 0, 0]\nclass = 1", fillcolor="#e58139"] ;
310 -> 311 ;
312 [label="Humidity(%) <= 13.5\nentropy = 1.4\nsamples = 171\nvalue = [18, 91, 61, 1]\nclass = 2", fillcolor="#cdf8c9"] ;
310 -> 312 ;
313 [label="entropy = 1.608\nsamples = 38\nvalue = [6, 14, 17, 1]\nclass = 3", fillcolor="#e6f3fc"] ;
312 -> 313 ;
314 [label="entropy = 1.298\nsamples = 133\nvalue = [12, 77, 44, 0]\nclass = 2", fillcolor="#bbf5b6"] ;
312 -> 314 ;
315 [label="Pressure(in) <= 24.655\nentropy = 1.206\nsamples = 395\nvalue = [10, 139, 239, 7]\nclass = 3", fillcolor="#b2d9f5"] ;
285 -> 315 ;
316 [label="Wind_Chill(F) <= 47.0\nentropy = 1.198\nsamples = 363\nvalue = [10, 117, 229, 7]\nclass = 3", fillcolor="#a5d2f3"] ;
315 -> 316 ;
317 [label="Humidity(%) <= 38.0\nentropy = 1.595\nsamples = 37\nvalue = [2, 12, 19, 4]\nclass = 3", fillcolor="#c8e4f8"] ;
316 -> 317 ;
318 [label="Humidity(%) <= 25.0\nentropy = 1.382\nsamples = 18\nvalue = [2, 9, 7, 0]\nclass = 2", fillcolor="#defadb"] ;
317 -> 318 ;
319 [label="entropy = 0.0\nsamples = 5\nvalue = [0, 0, 5, 0]\nclass = 3", fillcolor="#399de5"] ;
318 -> 319 ;
320 [label="entropy = 1.198\nsamples = 13\nvalue = [2, 9, 2, 0]\nclass = 2", fillcolor="#8aee81"] ;
318 -> 320 ;
321 [label="Pressure(in) <= 24.605\nentropy = 1.312\nsamples = 19\nvalue = [0, 3, 12, 4]\nclass = 3", fillcolor="#95cbf1"] ;
317 -> 321 ;
322 [label="entropy = 0.811\nsamples = 12\nvalue = [0, 0, 9, 3]\nclass = 3", fillcolor="#7bbeee"] ;
321 -> 322 ;
323 [label="entropy = 1.449\nsamples = 7\nvalue = [0, 3, 3, 1]\nclass = 2", fillcolor="#ffffff"] ;
321 -> 323 ;
324 [label="Stop <= 0.5\nentropy = 1.129\nsamples = 326\nvalue = [8, 105, 210, 3]\nclass = 3", fillcolor="#a1d0f3"] ;
316 -> 324 ;
325 [label="Distance(mi) <= 0.003\nentropy = 1.11\nsamples = 322\nvalue = [7, 102, 210, 3]\nclass = 3", fillcolor="#9ecff2"] ;
324 -> 325 ;
326 [label="entropy = 1.103\nsamples = 318\nvalue = [7, 98, 210, 3]\nclass = 3", fillcolor="#9acdf2"] ;
325 -> 326 ;
327 [label="entropy = 0.0\nsamples = 4\nvalue = [0, 4, 0, 0]\nclass = 2", fillcolor="#47e539"] ;
325 -> 327 ;
328 [label="Humidity(%) <= 22.5\nentropy = 0.811\nsamples = 4\nvalue = [1, 3, 0, 0]\nclass = 2", fillcolor="#84ee7b"] ;
324 -> 328 ;
329 [label="entropy = 0.0\nsamples = 3\nvalue = [0, 3, 0, 0]\nclass = 2", fillcolor="#47e539"] ;
328 -> 329 ;
330 [label="entropy = 0.0\nsamples = 1\nvalue = [1, 0, 0, 0]\nclass = 1", fillcolor="#e58139"] ;
328 -> 330 ;
331 [label="Temperature(F) <= 75.5\nentropy = 0.896\nsamples = 32\nvalue = [0, 22, 10, 0]\nclass = 2", fillcolor="#9bf193"] ;
315 -> 331 ;
332 [label="Pressure(in) <= 24.685\nentropy = 0.684\nsamples = 22\nvalue = [0, 18, 4, 0]\nclass = 2", fillcolor="#70eb65"] ;
331 -> 332 ;
333 [label="Junction <= 0.5\nentropy = 0.863\nsamples = 14\nvalue = [0, 10, 4, 0]\nclass = 2", fillcolor="#91ef88"] ;
332 -> 333 ;
334 [label="entropy = 0.971\nsamples = 10\nvalue = [0, 6, 4, 0]\nclass = 2", fillcolor="#c2f6bd"] ;
333 -> 334 ;
335 [label="entropy = 0.0\nsamples = 4\nvalue = [0, 4, 0, 0]\nclass = 2", fillcolor="#47e539"] ;
333 -> 335 ;
336 [label="entropy = 0.0\nsamples = 8\nvalue = [0, 8, 0, 0]\nclass = 2", fillcolor="#47e539"] ;
332 -> 336 ;
337 [label="Humidity(%) <= 22.0\nentropy = 0.971\nsamples = 10\nvalue = [0, 4, 6, 0]\nclass = 3", fillcolor="#bddef6"] ;
331 -> 337 ;
338 [label="Wind_Speed(mph) <= 4.5\nentropy = 0.918\nsamples = 6\nvalue = [0, 4, 2, 0]\nclass = 2", fillcolor="#a3f29c"] ;
337 -> 338 ;
339 [label="entropy = 0.918\nsamples = 3\nvalue = [0, 1, 2, 0]\nclass = 3", fillcolor="#9ccef2"] ;
338 -> 339 ;
340 [label="entropy = 0.0\nsamples = 3\nvalue = [0, 3, 0, 0]\nclass = 2", fillcolor="#47e539"] ;
338 -> 340 ;
341 [label="entropy = 0.0\nsamples = 4\nvalue = [0, 0, 4, 0]\nclass = 3", fillcolor="#399de5"] ;
337 -> 341 ;
342 [label="Wind_Chill(F) <= 13.5\nentropy = 1.297\nsamples = 732\nvalue = [29, 353, 339, 11]\nclass = 2", fillcolor="#f8fef8"] ;
244 -> 342 ;
343 [label="Visibility(mi) <= 8.5\nentropy = 1.401\nsamples = 118\nvalue = [15, 42, 61, 0]\nclass = 3", fillcolor="#cee6f8"] ;
342 -> 343 ;
344 [label="Pressure(in) <= 24.305\nentropy = 1.398\nsamples = 76\nvalue = [14, 18, 44, 0]\nclass = 3", fillcolor="#a6d3f3"] ;
343 -> 344 ;
345 [label="Humidity(%) <= 85.5\nentropy = 1.558\nsamples = 32\nvalue = [11, 8, 13, 0]\nclass = 3", fillcolor="#ecf6fd"] ;
344 -> 345 ;
346 [label="Humidity(%) <= 76.0\nentropy = 1.559\nsamples = 20\nvalue = [5, 8, 7, 0]\nclass = 2", fillcolor="#f1fdf0"] ;
345 -> 346 ;
347 [label="entropy = 0.0\nsamples = 3\nvalue = [0, 0, 3, 0]\nclass = 3", fillcolor="#399de5"] ;
346 -> 347 ;
348 [label="Wind_Speed(mph) <= 13.0\nentropy = 1.522\nsamples = 17\nvalue = [5, 8, 4, 0]\nclass = 2", fillcolor="#d1f8ce"] ;
346 -> 348 ;
349 [label="entropy = 1.577\nsamples = 14\nvalue = [5, 5, 4, 0]\nclass = 1", fillcolor="#ffffff"] ;
348 -> 349 ;
350 [label="entropy = 0.0\nsamples = 3\nvalue = [0, 3, 0, 0]\nclass = 2", fillcolor="#47e539"] ;
348 -> 350 ;
351 [label="Pressure(in) <= 24.19\nentropy = 1.0\nsamples = 12\nvalue = [6, 0, 6, 0]\nclass = 1", fillcolor="#ffffff"] ;
345 -> 351 ;
352 [label="entropy = 0.0\nsamples = 5\nvalue = [0, 0, 5, 0]\nclass = 3", fillcolor="#399de5"] ;
351 -> 352 ;
353 [label="Humidity(%) <= 88.5\nentropy = 0.592\nsamples = 7\nvalue = [6, 0, 1, 0]\nclass = 1", fillcolor="#e9965a"] ;
351 -> 353 ;
354 [label="entropy = 0.0\nsamples = 1\nvalue = [0, 0, 1, 0]\nclass = 3", fillcolor="#399de5"] ;
353 -> 354 ;
355 [label="entropy = 0.0\nsamples = 6\nvalue = [6, 0, 0, 0]\nclass = 1", fillcolor="#e58139"] ;
353 -> 355 ;
356 [label="Visibility(mi) <= 2.5\nentropy = 1.106\nsamples = 44\nvalue = [3, 10, 31, 0]\nclass = 3", fillcolor="#85c2ef"] ;
344 -> 356 ;
357 [label="Humidity(%) <= 82.5\nentropy = 1.094\nsamples = 31\nvalue = [1, 10, 20, 0]\nclass = 3", fillcolor="#a1d0f3"] ;
356 -> 357 ;
358 [label="Wind_Speed(mph) <= 7.5\nentropy = 0.918\nsamples = 3\nvalue = [1, 0, 2, 0]\nclass = 3", fillcolor="#9ccef2"] ;
357 -> 358 ;
359 [label="entropy = 1.0\nsamples = 2\nvalue = [1, 0, 1, 0]\nclass = 1", fillcolor="#ffffff"] ;
358 -> 359 ;
360 [label="entropy = 0.0\nsamples = 1\nvalue = [0, 0, 1, 0]\nclass = 3", fillcolor="#399de5"] ;
358 -> 360 ;
361 [label="Humidity(%) <= 86.5\nentropy = 0.94\nsamples = 28\nvalue = [0, 10, 18, 0]\nclass = 3", fillcolor="#a7d3f3"] ;
357 -> 361 ;
362 [label="entropy = 0.954\nsamples = 8\nvalue = [0, 5, 3, 0]\nclass = 2", fillcolor="#b5f5b0"] ;
361 -> 362 ;
363 [label="entropy = 0.811\nsamples = 20\nvalue = [0, 5, 15, 0]\nclass = 3", fillcolor="#7bbeee"] ;
361 -> 363 ;
364 [label="Pressure(in) <= 24.54\nentropy = 0.619\nsamples = 13\nvalue = [2, 0, 11, 0]\nclass = 3", fillcolor="#5dafea"] ;
356 -> 364 ;
365 [label="entropy = 0.0\nsamples = 8\nvalue = [0, 0, 8, 0]\nclass = 3", fillcolor="#399de5"] ;
364 -> 365 ;
366 [label="Pressure(in) <= 24.64\nentropy = 0.971\nsamples = 5\nvalue = [2, 0, 3, 0]\nclass = 3", fillcolor="#bddef6"] ;
364 -> 366 ;
367 [label="entropy = 0.918\nsamples = 3\nvalue = [2, 0, 1, 0]\nclass = 1", fillcolor="#f2c09c"] ;
366 -> 367 ;
368 [label="entropy = 0.0\nsamples = 2\nvalue = [0, 0, 2, 0]\nclass = 3", fillcolor="#399de5"] ;
366 -> 368 ;
369 [label="Wind_Speed(mph) <= 6.5\nentropy = 1.118\nsamples = 42\nvalue = [1, 24, 17, 0]\nclass = 2", fillcolor="#cbf8c8"] ;
343 -> 369 ;
370 [label="Wind_Chill(F) <= 11.5\nentropy = 0.868\nsamples = 16\nvalue = [1, 13, 2, 0]\nclass = 2", fillcolor="#6eeb63"] ;
369 -> 370 ;
371 [label="entropy = 0.0\nsamples = 9\nvalue = [0, 9, 0, 0]\nclass = 2", fillcolor="#47e539"] ;
370 -> 371 ;
372 [label="Humidity(%) <= 84.5\nentropy = 1.379\nsamples = 7\nvalue = [1, 4, 2, 0]\nclass = 2", fillcolor="#b5f5b0"] ;
370 -> 372 ;
373 [label="Temperature(F) <= 15.5\nentropy = 0.918\nsamples = 3\nvalue = [1, 0, 2, 0]\nclass = 3", fillcolor="#9ccef2"] ;
372 -> 373 ;
374 [label="entropy = 0.0\nsamples = 1\nvalue = [0, 0, 1, 0]\nclass = 3", fillcolor="#399de5"] ;
373 -> 374 ;
375 [label="entropy = 1.0\nsamples = 2\nvalue = [1, 0, 1, 0]\nclass = 1", fillcolor="#ffffff"] ;
373 -> 375 ;
376 [label="entropy = 0.0\nsamples = 4\nvalue = [0, 4, 0, 0]\nclass = 2", fillcolor="#47e539"] ;
372 -> 376 ;
377 [label="Pressure(in) <= 24.57\nentropy = 0.983\nsamples = 26\nvalue = [0, 11, 15, 0]\nclass = 3", fillcolor="#cae5f8"] ;
369 -> 377 ;
378 [label="Wind_Speed(mph) <= 15.0\nentropy = 0.787\nsamples = 17\nvalue = [0, 4, 13, 0]\nclass = 3", fillcolor="#76bbed"] ;
377 -> 378 ;
379 [label="Temperature(F) <= 17.5\nentropy = 0.696\nsamples = 16\nvalue = [0, 3, 13, 0]\nclass = 3", fillcolor="#67b4eb"] ;
378 -> 379 ;
380 [label="entropy = 1.0\nsamples = 4\nvalue = [0, 2, 2, 0]\nclass = 2", fillcolor="#ffffff"] ;
379 -> 380 ;
381 [label="entropy = 0.414\nsamples = 12\nvalue = [0, 1, 11, 0]\nclass = 3", fillcolor="#4ba6e7"] ;
379 -> 381 ;
382 [label="entropy = 0.0\nsamples = 1\nvalue = [0, 1, 0, 0]\nclass = 2", fillcolor="#47e539"] ;
378 -> 382 ;
383 [label="Wind_Speed(mph) <= 8.5\nentropy = 0.764\nsamples = 9\nvalue = [0, 7, 2, 0]\nclass = 2", fillcolor="#7cec72"] ;
377 -> 383 ;
384 [label="entropy = 0.0\nsamples = 5\nvalue = [0, 5, 0, 0]\nclass = 2", fillcolor="#47e539"] ;
383 -> 384 ;
385 [label="Temperature(F) <= 21.0\nentropy = 1.0\nsamples = 4\nvalue = [0, 2, 2, 0]\nclass = 2", fillcolor="#ffffff"] ;
383 -> 385 ;
386 [label="entropy = 0.0\nsamples = 2\nvalue = [0, 0, 2, 0]\nclass = 3", fillcolor="#399de5"] ;
385 -> 386 ;
387 [label="entropy = 0.0\nsamples = 2\nvalue = [0, 2, 0, 0]\nclass = 2", fillcolor="#47e539"] ;
385 -> 387 ;
388 [label="Wind_Chill(F) <= 16.5\nentropy = 1.243\nsamples = 614\nvalue = [14, 311, 278, 11]\nclass = 2", fillcolor="#edfcec"] ;
342 -> 388 ;
389 [label="Pressure(in) <= 24.42\nentropy = 1.317\nsamples = 84\nvalue = [0, 33, 44, 7]\nclass = 3", fillcolor="#d4eaf9"] ;
388 -> 389 ;
390 [label="Pressure(in) <= 24.225\nentropy = 1.062\nsamples = 49\nvalue = [0, 13, 34, 2]\nclass = 3", fillcolor="#8cc6f0"] ;
389 -> 390 ;
391 [label="Visibility(mi) <= 1.5\nentropy = 1.495\nsamples = 11\nvalue = [0, 4, 5, 2]\nclass = 3", fillcolor="#e3f1fb"] ;
390 -> 391 ;
392 [label="Wind_Speed(mph) <= 11.5\nentropy = 1.522\nsamples = 5\nvalue = [0, 1, 2, 2]\nclass = 3", fillcolor="#ffffff"] ;
391 -> 392 ;
393 [label="entropy = 1.5\nsamples = 4\nvalue = [0, 1, 2, 1]\nclass = 3", fillcolor="#bddef6"] ;
392 -> 393 ;
394 [label="entropy = 0.0\nsamples = 1\nvalue = [0, 0, 0, 1]\nclass = 4", fillcolor="#d739e5"] ;
392 -> 394 ;
395 [label="Humidity(%) <= 89.0\nentropy = 1.0\nsamples = 6\nvalue = [0, 3, 3, 0]\nclass = 2", fillcolor="#ffffff"] ;
391 -> 395 ;
396 [label="entropy = 0.811\nsamples = 4\nvalue = [0, 3, 1, 0]\nclass = 2", fillcolor="#84ee7b"] ;
395 -> 396 ;
397 [label="entropy = 0.0\nsamples = 2\nvalue = [0, 0, 2, 0]\nclass = 3", fillcolor="#399de5"] ;
395 -> 397 ;
398 [label="Pressure(in) <= 24.395\nentropy = 0.79\nsamples = 38\nvalue = [0, 9, 29, 0]\nclass = 3", fillcolor="#76bbed"] ;
390 -> 398 ;
399 [label="Wind_Chill(F) <= 15.5\nentropy = 0.845\nsamples = 33\nvalue = [0, 9, 24, 0]\nclass = 3", fillcolor="#83c2ef"] ;
398 -> 399 ;
400 [label="entropy = 0.592\nsamples = 14\nvalue = [0, 2, 12, 0]\nclass = 3", fillcolor="#5aade9"] ;
399 -> 400 ;
401 [label="entropy = 0.949\nsamples = 19\nvalue = [0, 7, 12, 0]\nclass = 3", fillcolor="#acd6f4"] ;
399 -> 401 ;
402 [label="entropy = 0.0\nsamples = 5\nvalue = [0, 0, 5, 0]\nclass = 3", fillcolor="#399de5"] ;
398 -> 402 ;
403 [label="Wind_Speed(mph) <= 7.5\nentropy = 1.379\nsamples = 35\nvalue = [0, 20, 10, 5]\nclass = 2", fillcolor="#b5f5b0"] ;
389 -> 403 ;
404 [label="Pressure(in) <= 24.5\nentropy = 0.881\nsamples = 20\nvalue = [0, 14, 6, 0]\nclass = 2", fillcolor="#96f08e"] ;
403 -> 404 ;
405 [label="entropy = 0.0\nsamples = 6\nvalue = [0, 6, 0, 0]\nclass = 2", fillcolor="#47e539"] ;
404 -> 405 ;
406 [label="Junction <= 0.5\nentropy = 0.985\nsamples = 14\nvalue = [0, 8, 6, 0]\nclass = 2", fillcolor="#d1f8ce"] ;
404 -> 406 ;
407 [label="entropy = 0.863\nsamples = 7\nvalue = [0, 2, 5, 0]\nclass = 3", fillcolor="#88c4ef"] ;
406 -> 407 ;
408 [label="entropy = 0.592\nsamples = 7\nvalue = [0, 6, 1, 0]\nclass = 2", fillcolor="#66e95a"] ;
406 -> 408 ;
409 [label="Junction <= 0.5\nentropy = 1.566\nsamples = 15\nvalue = [0, 6, 4, 5]\nclass = 2", fillcolor="#edfceb"] ;
403 -> 409 ;
410 [label="Humidity(%) <= 87.5\nentropy = 1.495\nsamples = 11\nvalue = [0, 2, 4, 5]\nclass = 4", fillcolor="#f9e3fb"] ;
409 -> 410 ;
411 [label="entropy = 0.0\nsamples = 2\nvalue = [0, 2, 0, 0]\nclass = 2", fillcolor="#47e539"] ;
410 -> 411 ;
412 [label="entropy = 0.991\nsamples = 9\nvalue = [0, 0, 4, 5]\nclass = 4", fillcolor="#f7d7fa"] ;
410 -> 412 ;
413 [label="entropy = 0.0\nsamples = 4\nvalue = [0, 4, 0, 0]\nclass = 2", fillcolor="#47e539"] ;
409 -> 413 ;
414 [label="Temperature(F) <= 50.5\nentropy = 1.201\nsamples = 530\nvalue = [14, 278, 234, 4]\nclass = 2", fillcolor="#e4fbe2"] ;
388 -> 414 ;
415 [label="Wind_Chill(F) <= 21.5\nentropy = 1.114\nsamples = 459\nvalue = [10, 258, 191, 0]\nclass = 2", fillcolor="#d1f8ce"] ;
414 -> 415 ;
416 [label="Visibility(mi) <= 8.0\nentropy = 1.14\nsamples = 91\nvalue = [3, 34, 54, 0]\nclass = 3", fillcolor="#baddf6"] ;
415 -> 416 ;
417 [label="Pressure(in) <= 24.25\nentropy = 1.199\nsamples = 46\nvalue = [3, 14, 29, 0]\nclass = 3", fillcolor="#a2d1f3"] ;
416 -> 417 ;
418 [label="entropy = 0.353\nsamples = 15\nvalue = [0, 1, 14, 0]\nclass = 3", fillcolor="#47a4e7"] ;
417 -> 418 ;
419 [label="entropy = 1.359\nsamples = 31\nvalue = [3, 13, 15, 0]\nclass = 3", fillcolor="#e9f4fc"] ;
417 -> 419 ;
420 [label="Temperature(F) <= 18.5\nentropy = 0.991\nsamples = 45\nvalue = [0, 20, 25, 0]\nclass = 3", fillcolor="#d7ebfa"] ;
416 -> 420 ;
421 [label="entropy = 0.0\nsamples = 2\nvalue = [0, 2, 0, 0]\nclass = 2", fillcolor="#47e539"] ;
420 -> 421 ;
422 [label="entropy = 0.981\nsamples = 43\nvalue = [0, 18, 25, 0]\nclass = 3", fillcolor="#c8e4f8"] ;
420 -> 422 ;
423 [label="Pressure(in) <= 24.255\nentropy = 1.075\nsamples = 368\nvalue = [7, 224, 137, 0]\nclass = 2", fillcolor="#baf5b4"] ;
415 -> 423 ;
424 [label="Wind_Speed(mph) <= 14.0\nentropy = 0.858\nsamples = 110\nvalue = [0, 79, 31, 0]\nclass = 2", fillcolor="#8fef87"] ;
423 -> 424 ;
425 [label="entropy = 0.787\nsamples = 102\nvalue = [0, 78, 24, 0]\nclass = 2", fillcolor="#80ed76"] ;
424 -> 425 ;
426 [label="entropy = 0.544\nsamples = 8\nvalue = [0, 1, 7, 0]\nclass = 3", fillcolor="#55abe9"] ;
424 -> 426 ;
427 [label="Pressure(in) <= 24.475\nentropy = 1.136\nsamples = 258\nvalue = [7, 145, 106, 0]\nclass = 2", fillcolor="#d0f8cc"] ;
423 -> 427 ;
428 [label="entropy = 1.219\nsamples = 156\nvalue = [7, 74, 75, 0]\nclass = 3", fillcolor="#fdfeff"] ;
427 -> 428 ;
429 [label="entropy = 0.886\nsamples = 102\nvalue = [0, 71, 31, 0]\nclass = 2", fillcolor="#97f08f"] ;
427 -> 429 ;
430 [label="Pressure(in) <= 24.325\nentropy = 1.421\nsamples = 71\nvalue = [4, 20, 43, 4]\nclass = 3", fillcolor="#a6d3f3"] ;
414 -> 430 ;
431 [label="Temperature(F) <= 71.0\nentropy = 1.523\nsamples = 19\nvalue = [2, 12, 3, 2]\nclass = 2", fillcolor="#98f090"] ;
430 -> 431 ;
432 [label="Humidity(%) <= 59.5\nentropy = 1.16\nsamples = 17\nvalue = [2, 12, 3, 0]\nclass = 2", fillcolor="#89ee80"] ;
431 -> 432 ;
433 [label="entropy = 0.918\nsamples = 6\nvalue = [2, 4, 0, 0]\nclass = 2", fillcolor="#a3f29c"] ;
432 -> 433 ;
434 [label="entropy = 0.845\nsamples = 11\nvalue = [0, 8, 3, 0]\nclass = 2", fillcolor="#8cef83"] ;
432 -> 434 ;
435 [label="entropy = 0.0\nsamples = 2\nvalue = [0, 0, 0, 2]\nclass = 4", fillcolor="#d739e5"] ;
431 -> 435 ;
436 [label="Humidity(%) <= 90.0\nentropy = 1.068\nsamples = 52\nvalue = [2, 8, 40, 2]\nclass = 3", fillcolor="#6fb8ec"] ;
430 -> 436 ;
437 [label="Wind_Speed(mph) <= 5.5\nentropy = 0.953\nsamples = 50\nvalue = [1, 7, 40, 2]\nclass = 3", fillcolor="#67b4eb"] ;
436 -> 437 ;
438 [label="entropy = 1.098\nsamples = 18\nvalue = [1, 1, 14, 2]\nclass = 3", fillcolor="#6ab6ec"] ;
437 -> 438 ;
439 [label="entropy = 0.696\nsamples = 32\nvalue = [0, 6, 26, 0]\nclass = 3", fillcolor="#67b4eb"] ;
437 -> 439 ;
440 [label="Wind_Chill(F) <= 51.5\nentropy = 1.0\nsamples = 2\nvalue = [1, 1, 0, 0]\nclass = 1", fillcolor="#ffffff"] ;
436 -> 440 ;
441 [label="entropy = 0.0\nsamples = 1\nvalue = [1, 0, 0, 0]\nclass = 1", fillcolor="#e58139"] ;
440 -> 441 ;
442 [label="entropy = 0.0\nsamples = 1\nvalue = [0, 1, 0, 0]\nclass = 2", fillcolor="#47e539"] ;
440 -> 442 ;
443 [label="Temperature(F) <= 65.0\nentropy = 0.791\nsamples = 208\nvalue = [3, 38, 167, 0]\nclass = 3", fillcolor="#69b5eb"] ;
243 -> 443 ;
444 [label="Humidity(%) <= 23.5\nentropy = 0.648\nsamples = 124\nvalue = [2, 15, 107, 0]\nclass = 3", fillcolor="#58ace9"] ;
443 -> 444 ;
445 [label="entropy = 0.0\nsamples = 34\nvalue = [0, 0, 34, 0]\nclass = 3", fillcolor="#399de5"] ;
444 -> 445 ;
446 [label="Wind_Chill(F) <= 58.0\nentropy = 0.798\nsamples = 90\nvalue = [2, 15, 73, 0]\nclass = 3", fillcolor="#66b3eb"] ;
444 -> 446 ;
447 [label="Pressure(in) <= 24.425\nentropy = 0.676\nsamples = 73\nvalue = [0, 13, 60, 0]\nclass = 3", fillcolor="#64b2eb"] ;
446 -> 447 ;
448 [label="Pressure(in) <= 24.325\nentropy = 0.811\nsamples = 48\nvalue = [0, 12, 36, 0]\nclass = 3", fillcolor="#7bbeee"] ;
447 -> 448 ;
449 [label="Humidity(%) <= 26.0\nentropy = 0.454\nsamples = 21\nvalue = [0, 2, 19, 0]\nclass = 3", fillcolor="#4ea7e8"] ;
448 -> 449 ;
450 [label="Temperature(F) <= 46.0\nentropy = 1.0\nsamples = 4\nvalue = [0, 2, 2, 0]\nclass = 2", fillcolor="#ffffff"] ;
449 -> 450 ;
451 [label="entropy = 1.0\nsamples = 2\nvalue = [0, 1, 1, 0]\nclass = 2", fillcolor="#ffffff"] ;
450 -> 451 ;
452 [label="entropy = 1.0\nsamples = 2\nvalue = [0, 1, 1, 0]\nclass = 2", fillcolor="#ffffff"] ;
450 -> 452 ;
453 [label="entropy = 0.0\nsamples = 17\nvalue = [0, 0, 17, 0]\nclass = 3", fillcolor="#399de5"] ;
449 -> 453 ;
454 [label="Wind_Speed(mph) <= 8.5\nentropy = 0.951\nsamples = 27\nvalue = [0, 10, 17, 0]\nclass = 3", fillcolor="#add7f4"] ;
448 -> 454 ;
455 [label="Visibility(mi) <= 47.5\nentropy = 0.998\nsamples = 17\nvalue = [0, 9, 8, 0]\nclass = 2", fillcolor="#ebfce9"] ;
454 -> 455 ;
456 [label="entropy = 0.961\nsamples = 13\nvalue = [0, 5, 8, 0]\nclass = 3", fillcolor="#b5daf5"] ;
455 -> 456 ;
457 [label="entropy = 0.0\nsamples = 4\nvalue = [0, 4, 0, 0]\nclass = 2", fillcolor="#47e539"] ;
455 -> 457 ;
458 [label="Junction <= 0.5\nentropy = 0.469\nsamples = 10\nvalue = [0, 1, 9, 0]\nclass = 3", fillcolor="#4fa8e8"] ;
454 -> 458 ;
459 [label="entropy = 0.0\nsamples = 8\nvalue = [0, 0, 8, 0]\nclass = 3", fillcolor="#399de5"] ;
458 -> 459 ;
460 [label="entropy = 1.0\nsamples = 2\nvalue = [0, 1, 1, 0]\nclass = 2", fillcolor="#ffffff"] ;
458 -> 460 ;
461 [label="Wind_Chill(F) <= 21.0\nentropy = 0.242\nsamples = 25\nvalue = [0, 1, 24, 0]\nclass = 3", fillcolor="#41a1e6"] ;
447 -> 461 ;
462 [label="Visibility(mi) <= 26.0\nentropy = 0.811\nsamples = 4\nvalue = [0, 1, 3, 0]\nclass = 3", fillcolor="#7bbeee"] ;
461 -> 462 ;
463 [label="entropy = 0.0\nsamples = 2\nvalue = [0, 0, 2, 0]\nclass = 3", fillcolor="#399de5"] ;
462 -> 463 ;
464 [label="entropy = 1.0\nsamples = 2\nvalue = [0, 1, 1, 0]\nclass = 2", fillcolor="#ffffff"] ;
462 -> 464 ;
465 [label="entropy = 0.0\nsamples = 21\nvalue = [0, 0, 21, 0]\nclass = 3", fillcolor="#399de5"] ;
461 -> 465 ;
466 [label="Pressure(in) <= 24.48\nentropy = 1.022\nsamples = 17\nvalue = [2, 2, 13, 0]\nclass = 3", fillcolor="#6eb7ec"] ;
446 -> 466 ;
467 [label="Pressure(in) <= 24.405\nentropy = 0.567\nsamples = 15\nvalue = [2, 0, 13, 0]\nclass = 3", fillcolor="#57ace9"] ;
466 -> 467 ;
468 [label="entropy = 0.0\nsamples = 8\nvalue = [0, 0, 8, 0]\nclass = 3", fillcolor="#399de5"] ;
467 -> 468 ;
469 [label="Visibility(mi) <= 42.5\nentropy = 0.863\nsamples = 7\nvalue = [2, 0, 5, 0]\nclass = 3", fillcolor="#88c4ef"] ;
467 -> 469 ;
470 [label="Wind_Chill(F) <= 61.0\nentropy = 0.918\nsamples = 3\nvalue = [2, 0, 1, 0]\nclass = 1", fillcolor="#f2c09c"] ;
469 -> 470 ;
471 [label="entropy = 0.0\nsamples = 1\nvalue = [1, 0, 0, 0]\nclass = 1", fillcolor="#e58139"] ;
470 -> 471 ;
472 [label="entropy = 1.0\nsamples = 2\nvalue = [1, 0, 1, 0]\nclass = 1", fillcolor="#ffffff"] ;
470 -> 472 ;
473 [label="entropy = 0.0\nsamples = 4\nvalue = [0, 0, 4, 0]\nclass = 3", fillcolor="#399de5"] ;
469 -> 473 ;
474 [label="entropy = 0.0\nsamples = 2\nvalue = [0, 2, 0, 0]\nclass = 2", fillcolor="#47e539"] ;
466 -> 474 ;
475 [label="Temperature(F) <= 67.0\nentropy = 0.935\nsamples = 84\nvalue = [1, 23, 60, 0]\nclass = 3", fillcolor="#87c4ef"] ;
443 -> 475 ;
476 [label="entropy = 0.0\nsamples = 8\nvalue = [0, 8, 0, 0]\nclass = 2", fillcolor="#47e539"] ;
475 -> 476 ;
477 [label="Wind_Speed(mph) <= 11.0\nentropy = 0.813\nsamples = 76\nvalue = [1, 15, 60, 0]\nclass = 3", fillcolor="#6db7ec"] ;
475 -> 477 ;
478 [label="Humidity(%) <= 37.0\nentropy = 0.773\nsamples = 66\nvalue = [0, 15, 51, 0]\nclass = 3", fillcolor="#73baed"] ;
477 -> 478 ;
479 [label="Humidity(%) <= 31.5\nentropy = 0.818\nsamples = 59\nvalue = [0, 15, 44, 0]\nclass = 3", fillcolor="#7cbeee"] ;
478 -> 479 ;
480 [label="Humidity(%) <= 26.5\nentropy = 0.722\nsamples = 50\nvalue = [0, 10, 40, 0]\nclass = 3", fillcolor="#6ab6ec"] ;
479 -> 480 ;
481 [label="Pressure(in) <= 24.665\nentropy = 0.773\nsamples = 44\nvalue = [0, 10, 34, 0]\nclass = 3", fillcolor="#73baed"] ;
480 -> 481 ;
482 [label="entropy = 0.74\nsamples = 43\nvalue = [0, 9, 34, 0]\nclass = 3", fillcolor="#6db7ec"] ;
481 -> 482 ;
483 [label="entropy = 0.0\nsamples = 1\nvalue = [0, 1, 0, 0]\nclass = 2", fillcolor="#47e539"] ;
481 -> 483 ;
484 [label="entropy = 0.0\nsamples = 6\nvalue = [0, 0, 6, 0]\nclass = 3", fillcolor="#399de5"] ;
480 -> 484 ;
485 [label="Wind_Speed(mph) <= 7.5\nentropy = 0.991\nsamples = 9\nvalue = [0, 5, 4, 0]\nclass = 2", fillcolor="#dafad7"] ;
479 -> 485 ;
486 [label="entropy = 0.0\nsamples = 3\nvalue = [0, 3, 0, 0]\nclass = 2", fillcolor="#47e539"] ;
485 -> 486 ;
487 [label="Wind_Speed(mph) <= 9.5\nentropy = 0.918\nsamples = 6\nvalue = [0, 2, 4, 0]\nclass = 3", fillcolor="#9ccef2"] ;
485 -> 487 ;
488 [label="entropy = 0.971\nsamples = 5\nvalue = [0, 2, 3, 0]\nclass = 3", fillcolor="#bddef6"] ;
487 -> 488 ;
489 [label="entropy = 0.0\nsamples = 1\nvalue = [0, 0, 1, 0]\nclass = 3", fillcolor="#399de5"] ;
487 -> 489 ;
490 [label="entropy = 0.0\nsamples = 7\nvalue = [0, 0, 7, 0]\nclass = 3", fillcolor="#399de5"] ;
478 -> 490 ;
491 [label="Wind_Chill(F) <= 71.0\nentropy = 0.469\nsamples = 10\nvalue = [1, 0, 9, 0]\nclass = 3", fillcolor="#4fa8e8"] ;
477 -> 491 ;
492 [label="Wind_Speed(mph) <= 13.0\nentropy = 0.918\nsamples = 3\nvalue = [1, 0, 2, 0]\nclass = 3", fillcolor="#9ccef2"] ;
491 -> 492 ;
493 [label="entropy = 0.0\nsamples = 1\nvalue = [1, 0, 0, 0]\nclass = 1", fillcolor="#e58139"] ;
492 -> 493 ;
494 [label="entropy = 0.0\nsamples = 2\nvalue = [0, 0, 2, 0]\nclass = 3", fillcolor="#399de5"] ;
492 -> 494 ;
495 [label="entropy = 0.0\nsamples = 7\nvalue = [0, 0, 7, 0]\nclass = 3", fillcolor="#399de5"] ;
491 -> 495 ;
496 [label="Pressure(in) <= 24.315\nentropy = 1.655\nsamples = 263\nvalue = [51, 143, 52, 17]\nclass = 2", fillcolor="#b0f4aa"] ;
4 -> 496 ;
497 [label="Station <= 0.5\nentropy = 1.444\nsamples = 150\nvalue = [31, 94, 20, 5]\nclass = 2", fillcolor="#9ef196"] ;
496 -> 497 ;
498 [label="Pressure(in) <= 23.59\nentropy = 1.329\nsamples = 142\nvalue = [31, 91, 19, 1]\nclass = 2", fillcolor="#9cf194"] ;
497 -> 498 ;
499 [label="Temperature(F) <= 62.0\nentropy = 1.592\nsamples = 14\nvalue = [1, 6, 6, 1]\nclass = 2", fillcolor="#ffffff"] ;
498 -> 499 ;
500 [label="Visibility(mi) <= 6.549\nentropy = 1.664\nsamples = 7\nvalue = [1, 4, 1, 1]\nclass = 2", fillcolor="#a3f29c"] ;
499 -> 500 ;
501 [label="entropy = 0.0\nsamples = 1\nvalue = [0, 0, 1, 0]\nclass = 3", fillcolor="#399de5"] ;
500 -> 501 ;
502 [label="Humidity(%) <= 49.0\nentropy = 1.252\nsamples = 6\nvalue = [1, 4, 0, 1]\nclass = 2", fillcolor="#91ef88"] ;
500 -> 502 ;
503 [label="Wind_Speed(mph) <= 13.5\nentropy = 1.585\nsamples = 3\nvalue = [1, 1, 0, 1]\nclass = 1", fillcolor="#ffffff"] ;
502 -> 503 ;
504 [label="entropy = 0.0\nsamples = 1\nvalue = [1, 0, 0, 0]\nclass = 1", fillcolor="#e58139"] ;
503 -> 504 ;
505 [label="entropy = 1.0\nsamples = 2\nvalue = [0, 1, 0, 1]\nclass = 2", fillcolor="#ffffff"] ;
503 -> 505 ;
506 [label="entropy = 0.0\nsamples = 3\nvalue = [0, 3, 0, 0]\nclass = 2", fillcolor="#47e539"] ;
502 -> 506 ;
507 [label="Pressure(in) <= 23.445\nentropy = 0.863\nsamples = 7\nvalue = [0, 2, 5, 0]\nclass = 3", fillcolor="#88c4ef"] ;
499 -> 507 ;
508 [label="entropy = 0.0\nsamples = 4\nvalue = [0, 0, 4, 0]\nclass = 3", fillcolor="#399de5"] ;
507 -> 508 ;
509 [label="Temperature(F) <= 65.0\nentropy = 0.918\nsamples = 3\nvalue = [0, 2, 1, 0]\nclass = 2", fillcolor="#a3f29c"] ;
507 -> 509 ;
510 [label="entropy = 0.0\nsamples = 1\nvalue = [0, 0, 1, 0]\nclass = 3", fillcolor="#399de5"] ;
509 -> 510 ;
511 [label="entropy = 0.0\nsamples = 2\nvalue = [0, 2, 0, 0]\nclass = 2", fillcolor="#47e539"] ;
509 -> 511 ;
512 [label="Wind_Chill(F) <= 11.0\nentropy = 1.218\nsamples = 128\nvalue = [30, 85, 13, 0]\nclass = 2", fillcolor="#98f090"] ;
498 -> 512 ;
513 [label="Temperature(F) <= 20.0\nentropy = 1.252\nsamples = 6\nvalue = [4, 1, 1, 0]\nclass = 1", fillcolor="#efb388"] ;
512 -> 513 ;
514 [label="entropy = 0.0\nsamples = 1\nvalue = [0, 0, 1, 0]\nclass = 3", fillcolor="#399de5"] ;
513 -> 514 ;
515 [label="Wind_Chill(F) <= 9.0\nentropy = 0.722\nsamples = 5\nvalue = [4, 1, 0, 0]\nclass = 1", fillcolor="#eca06a"] ;
513 -> 515 ;
516 [label="entropy = 0.0\nsamples = 1\nvalue = [1, 0, 0, 0]\nclass = 1", fillcolor="#e58139"] ;
515 -> 516 ;
517 [label="entropy = 0.811\nsamples = 4\nvalue = [3, 1, 0, 0]\nclass = 1", fillcolor="#eeab7b"] ;
515 -> 517 ;
518 [label="Humidity(%) <= 81.5\nentropy = 1.175\nsamples = 122\nvalue = [26, 84, 12, 0]\nclass = 2", fillcolor="#90ef87"] ;
512 -> 518 ;
519 [label="Pressure(in) <= 24.095\nentropy = 1.247\nsamples = 109\nvalue = [26, 71, 12, 0]\nclass = 2", fillcolor="#9bf194"] ;
518 -> 519 ;
520 [label="Wind_Speed(mph) <= 13.0\nentropy = 0.634\nsamples = 25\nvalue = [4, 21, 0, 0]\nclass = 2", fillcolor="#6aea5f"] ;
519 -> 520 ;
521 [label="Humidity(%) <= 66.5\nentropy = 0.31\nsamples = 18\nvalue = [1, 17, 0, 0]\nclass = 2", fillcolor="#52e745"] ;
520 -> 521 ;
522 [label="entropy = 0.0\nsamples = 17\nvalue = [0, 17, 0, 0]\nclass = 2", fillcolor="#47e539"] ;
521 -> 522 ;
523 [label="entropy = 0.0\nsamples = 1\nvalue = [1, 0, 0, 0]\nclass = 1", fillcolor="#e58139"] ;
521 -> 523 ;
524 [label="Wind_Speed(mph) <= 18.0\nentropy = 0.985\nsamples = 7\nvalue = [3, 4, 0, 0]\nclass = 2", fillcolor="#d1f8ce"] ;
520 -> 524 ;
525 [label="Temperature(F) <= 70.0\nentropy = 0.971\nsamples = 5\nvalue = [3, 2, 0, 0]\nclass = 1", fillcolor="#f6d5bd"] ;
524 -> 525 ;
526 [label="entropy = 0.0\nsamples = 2\nvalue = [2, 0, 0, 0]\nclass = 1", fillcolor="#e58139"] ;
525 -> 526 ;
527 [label="Pressure(in) <= 24.005\nentropy = 0.918\nsamples = 3\nvalue = [1, 2, 0, 0]\nclass = 2", fillcolor="#a3f29c"] ;
525 -> 527 ;
528 [label="entropy = 0.0\nsamples = 2\nvalue = [0, 2, 0, 0]\nclass = 2", fillcolor="#47e539"] ;
527 -> 528 ;
529 [label="entropy = 0.0\nsamples = 1\nvalue = [1, 0, 0, 0]\nclass = 1", fillcolor="#e58139"] ;
527 -> 529 ;
530 [label="entropy = 0.0\nsamples = 2\nvalue = [0, 2, 0, 0]\nclass = 2", fillcolor="#47e539"] ;
524 -> 530 ;
531 [label="Pressure(in) <= 24.155\nentropy = 1.353\nsamples = 84\nvalue = [22, 50, 12, 0]\nclass = 2", fillcolor="#acf3a6"] ;
519 -> 531 ;
532 [label="Wind_Speed(mph) <= 10.5\nentropy = 1.5\nsamples = 16\nvalue = [8, 4, 4, 0]\nclass = 1", fillcolor="#f6d5bd"] ;
531 -> 532 ;
533 [label="Humidity(%) <= 25.0\nentropy = 1.392\nsamples = 9\nvalue = [4, 4, 1, 0]\nclass = 1", fillcolor="#ffffff"] ;
532 -> 533 ;
534 [label="Wind_Chill(F) <= 78.5\nentropy = 0.811\nsamples = 4\nvalue = [0, 3, 1, 0]\nclass = 2", fillcolor="#84ee7b"] ;
533 -> 534 ;
535 [label="entropy = 0.0\nsamples = 3\nvalue = [0, 3, 0, 0]\nclass = 2", fillcolor="#47e539"] ;
534 -> 535 ;
536 [label="entropy = 0.0\nsamples = 1\nvalue = [0, 0, 1, 0]\nclass = 3", fillcolor="#399de5"] ;
534 -> 536 ;
537 [label="Wind_Chill(F) <= 48.5\nentropy = 0.722\nsamples = 5\nvalue = [4, 1, 0, 0]\nclass = 1", fillcolor="#eca06a"] ;
533 -> 537 ;
538 [label="entropy = 1.0\nsamples = 2\nvalue = [1, 1, 0, 0]\nclass = 1", fillcolor="#ffffff"] ;
537 -> 538 ;
539 [label="entropy = 0.0\nsamples = 3\nvalue = [3, 0, 0, 0]\nclass = 1", fillcolor="#e58139"] ;
537 -> 539 ;
540 [label="Wind_Speed(mph) <= 13.5\nentropy = 0.985\nsamples = 7\nvalue = [4, 0, 3, 0]\nclass = 1", fillcolor="#f8e0ce"] ;
532 -> 540 ;
541 [label="Wind_Chill(F) <= 62.0\nentropy = 0.811\nsamples = 4\nvalue = [1, 0, 3, 0]\nclass = 3", fillcolor="#7bbeee"] ;
540 -> 541 ;
542 [label="entropy = 0.0\nsamples = 3\nvalue = [0, 0, 3, 0]\nclass = 3", fillcolor="#399de5"] ;
541 -> 542 ;
543 [label="entropy = 0.0\nsamples = 1\nvalue = [1, 0, 0, 0]\nclass = 1", fillcolor="#e58139"] ;
541 -> 543 ;
544 [label="entropy = 0.0\nsamples = 3\nvalue = [3, 0, 0, 0]\nclass = 1", fillcolor="#e58139"] ;
540 -> 544 ;
545 [label="Humidity(%) <= 45.5\nentropy = 1.214\nsamples = 68\nvalue = [14, 46, 8, 0]\nclass = 2", fillcolor="#92f08a"] ;
531 -> 545 ;
546 [label="Wind_Chill(F) <= 56.0\nentropy = 1.266\nsamples = 55\nvalue = [14, 35, 6, 0]\nclass = 2", fillcolor="#a1f29a"] ;
545 -> 546 ;
547 [label="Pressure(in) <= 24.185\nentropy = 1.384\nsamples = 12\nvalue = [7, 3, 2, 0]\nclass = 1", fillcolor="#f3c7a7"] ;
546 -> 547 ;
548 [label="entropy = 0.811\nsamples = 4\nvalue = [1, 3, 0, 0]\nclass = 2", fillcolor="#84ee7b"] ;
547 -> 548 ;
549 [label="entropy = 0.811\nsamples = 8\nvalue = [6, 0, 2, 0]\nclass = 1", fillcolor="#eeab7b"] ;
547 -> 549 ;
550 [label="Pressure(in) <= 24.215\nentropy = 1.062\nsamples = 43\nvalue = [7, 32, 4, 0]\nclass = 2", fillcolor="#7fed76"] ;
546 -> 550 ;
551 [label="entropy = 0.0\nsamples = 16\nvalue = [0, 16, 0, 0]\nclass = 2", fillcolor="#47e539"] ;
550 -> 551 ;
552 [label="entropy = 1.36\nsamples = 27\nvalue = [7, 16, 4, 0]\nclass = 2", fillcolor="#acf3a6"] ;
550 -> 552 ;
553 [label="Pressure(in) <= 24.305\nentropy = 0.619\nsamples = 13\nvalue = [0, 11, 2, 0]\nclass = 2", fillcolor="#68ea5d"] ;
545 -> 553 ;
554 [label="Pressure(in) <= 24.185\nentropy = 0.414\nsamples = 12\nvalue = [0, 11, 1, 0]\nclass = 2", fillcolor="#58e74b"] ;
553 -> 554 ;
555 [label="entropy = 1.0\nsamples = 2\nvalue = [0, 1, 1, 0]\nclass = 2", fillcolor="#ffffff"] ;
554 -> 555 ;
556 [label="entropy = 0.0\nsamples = 10\nvalue = [0, 10, 0, 0]\nclass = 2", fillcolor="#47e539"] ;
554 -> 556 ;
557 [label="entropy = 0.0\nsamples = 1\nvalue = [0, 0, 1, 0]\nclass = 3", fillcolor="#399de5"] ;
553 -> 557 ;
558 [label="entropy = 0.0\nsamples = 13\nvalue = [0, 13, 0, 0]\nclass = 2", fillcolor="#47e539"] ;
518 -> 558 ;
559 [label="Pressure(in) <= 24.085\nentropy = 1.406\nsamples = 8\nvalue = [0, 3, 1, 4]\nclass = 4", fillcolor="#f7d7fa"] ;
497 -> 559 ;
560 [label="entropy = 0.0\nsamples = 4\nvalue = [0, 0, 0, 4]\nclass = 4", fillcolor="#d739e5"] ;
559 -> 560 ;
561 [label="Pressure(in) <= 24.205\nentropy = 0.811\nsamples = 4\nvalue = [0, 3, 1, 0]\nclass = 2", fillcolor="#84ee7b"] ;
559 -> 561 ;
562 [label="entropy = 0.0\nsamples = 1\nvalue = [0, 0, 1, 0]\nclass = 3", fillcolor="#399de5"] ;
561 -> 562 ;
563 [label="entropy = 0.0\nsamples = 3\nvalue = [0, 3, 0, 0]\nclass = 2", fillcolor="#47e539"] ;
561 -> 563 ;
564 [label="Pressure(in) <= 24.665\nentropy = 1.824\nsamples = 113\nvalue = [20, 49, 32, 12]\nclass = 2", fillcolor="#d8fad5"] ;
496 -> 564 ;
565 [label="Wind_Speed(mph) <= 6.5\nentropy = 1.795\nsamples = 108\nvalue = [16, 49, 31, 12]\nclass = 2", fillcolor="#d4f9d1"] ;
564 -> 565 ;
566 [label="Temperature(F) <= 22.0\nentropy = 1.52\nsamples = 37\nvalue = [8, 17, 12, 0]\nclass = 2", fillcolor="#dafad7"] ;
565 -> 566 ;
567 [label="entropy = 0.0\nsamples = 5\nvalue = [0, 0, 5, 0]\nclass = 3", fillcolor="#399de5"] ;
566 -> 567 ;
568 [label="Wind_Speed(mph) <= 1.5\nentropy = 1.464\nsamples = 32\nvalue = [8, 17, 7, 0]\nclass = 2", fillcolor="#baf5b5"] ;
566 -> 568 ;
569 [label="Pressure(in) <= 24.52\nentropy = 0.811\nsamples = 12\nvalue = [0, 9, 3, 0]\nclass = 2", fillcolor="#84ee7b"] ;
568 -> 569 ;
570 [label="Wind_Chill(F) <= 36.5\nentropy = 0.469\nsamples = 10\nvalue = [0, 9, 1, 0]\nclass = 2", fillcolor="#5be84f"] ;
569 -> 570 ;
571 [label="Humidity(%) <= 84.0\nentropy = 1.0\nsamples = 2\nvalue = [0, 1, 1, 0]\nclass = 2", fillcolor="#ffffff"] ;
570 -> 571 ;
572 [label="entropy = 0.0\nsamples = 1\nvalue = [0, 0, 1, 0]\nclass = 3", fillcolor="#399de5"] ;
571 -> 572 ;
573 [label="entropy = 0.0\nsamples = 1\nvalue = [0, 1, 0, 0]\nclass = 2", fillcolor="#47e539"] ;
571 -> 573 ;
574 [label="entropy = 0.0\nsamples = 8\nvalue = [0, 8, 0, 0]\nclass = 2", fillcolor="#47e539"] ;
570 -> 574 ;
575 [label="entropy = 0.0\nsamples = 2\nvalue = [0, 0, 2, 0]\nclass = 3", fillcolor="#399de5"] ;
569 -> 575 ;
576 [label="Pressure(in) <= 24.595\nentropy = 1.522\nsamples = 20\nvalue = [8, 8, 4, 0]\nclass = 1", fillcolor="#ffffff"] ;
568 -> 576 ;
577 [label="Humidity(%) <= 30.5\nentropy = 1.53\nsamples = 18\nvalue = [8, 6, 4, 0]\nclass = 1", fillcolor="#fbeade"] ;
576 -> 577 ;
578 [label="Humidity(%) <= 21.0\nentropy = 1.352\nsamples = 9\nvalue = [5, 1, 3, 0]\nclass = 1", fillcolor="#f6d5bd"] ;
577 -> 578 ;
579 [label="Wind_Chill(F) <= 76.5\nentropy = 0.918\nsamples = 3\nvalue = [2, 1, 0, 0]\nclass = 1", fillcolor="#f2c09c"] ;
578 -> 579 ;
580 [label="entropy = 0.0\nsamples = 1\nvalue = [0, 1, 0, 0]\nclass = 2", fillcolor="#47e539"] ;
579 -> 580 ;
581 [label="entropy = 0.0\nsamples = 2\nvalue = [2, 0, 0, 0]\nclass = 1", fillcolor="#e58139"] ;
579 -> 581 ;
582 [label="Wind_Speed(mph) <= 5.5\nentropy = 1.0\nsamples = 6\nvalue = [3, 0, 3, 0]\nclass = 1", fillcolor="#ffffff"] ;
578 -> 582 ;
583 [label="entropy = 0.0\nsamples = 2\nvalue = [0, 0, 2, 0]\nclass = 3", fillcolor="#399de5"] ;
582 -> 583 ;
584 [label="Wind_Chill(F) <= 60.5\nentropy = 0.811\nsamples = 4\nvalue = [3, 0, 1, 0]\nclass = 1", fillcolor="#eeab7b"] ;
582 -> 584 ;
585 [label="entropy = 0.0\nsamples = 3\nvalue = [3, 0, 0, 0]\nclass = 1", fillcolor="#e58139"] ;
584 -> 585 ;
586 [label="entropy = 0.0\nsamples = 1\nvalue = [0, 0, 1, 0]\nclass = 3", fillcolor="#399de5"] ;
584 -> 586 ;
587 [label="Pressure(in) <= 24.525\nentropy = 1.352\nsamples = 9\nvalue = [3, 5, 1, 0]\nclass = 2", fillcolor="#c2f6bd"] ;
577 -> 587 ;
588 [label="Temperature(F) <= 32.5\nentropy = 1.149\nsamples = 7\nvalue = [1, 5, 1, 0]\nclass = 2", fillcolor="#84ee7b"] ;
587 -> 588 ;
589 [label="Pressure(in) <= 24.41\nentropy = 1.585\nsamples = 3\nvalue = [1, 1, 1, 0]\nclass = 1", fillcolor="#ffffff"] ;
588 -> 589 ;
590 [label="entropy = 1.0\nsamples = 2\nvalue = [1, 0, 1, 0]\nclass = 1", fillcolor="#ffffff"] ;
589 -> 590 ;
591 [label="entropy = 0.0\nsamples = 1\nvalue = [0, 1, 0, 0]\nclass = 2", fillcolor="#47e539"] ;
589 -> 591 ;
592 [label="entropy = 0.0\nsamples = 4\nvalue = [0, 4, 0, 0]\nclass = 2", fillcolor="#47e539"] ;
588 -> 592 ;
593 [label="entropy = 0.0\nsamples = 2\nvalue = [2, 0, 0, 0]\nclass = 1", fillcolor="#e58139"] ;
587 -> 593 ;
594 [label="entropy = 0.0\nsamples = 2\nvalue = [0, 2, 0, 0]\nclass = 2", fillcolor="#47e539"] ;
576 -> 594 ;
595 [label="Pressure(in) <= 24.435\nentropy = 1.816\nsamples = 71\nvalue = [8, 32, 19, 12]\nclass = 2", fillcolor="#d1f8ce"] ;
565 -> 595 ;
596 [label="Visibility(mi) <= 7.5\nentropy = 1.633\nsamples = 39\nvalue = [5, 19, 13, 2]\nclass = 2", fillcolor="#d5f9d1"] ;
595 -> 596 ;
597 [label="Visibility(mi) <= 4.5\nentropy = 0.811\nsamples = 4\nvalue = [0, 0, 3, 1]\nclass = 3", fillcolor="#7bbeee"] ;
596 -> 597 ;
598 [label="entropy = 0.0\nsamples = 3\nvalue = [0, 0, 3, 0]\nclass = 3", fillcolor="#399de5"] ;
597 -> 598 ;
599 [label="entropy = 0.0\nsamples = 1\nvalue = [0, 0, 0, 1]\nclass = 4", fillcolor="#d739e5"] ;
597 -> 599 ;
600 [label="Wind_Speed(mph) <= 20.5\nentropy = 1.542\nsamples = 35\nvalue = [5, 19, 10, 1]\nclass = 2", fillcolor="#bdf6b8"] ;
596 -> 600 ;
601 [label="Wind_Speed(mph) <= 9.5\nentropy = 1.469\nsamples = 29\nvalue = [5, 18, 5, 1]\nclass = 2", fillcolor="#9bf194"] ;
600 -> 601 ;
602 [label="Temperature(F) <= 48.5\nentropy = 1.522\nsamples = 17\nvalue = [4, 8, 5, 0]\nclass = 2", fillcolor="#d1f8ce"] ;
601 -> 602 ;
603 [label="Station <= 0.5\nentropy = 0.863\nsamples = 7\nvalue = [2, 5, 0, 0]\nclass = 2", fillcolor="#91ef88"] ;
602 -> 603 ;
604 [label="Distance(mi) <= 0.002\nentropy = 0.65\nsamples = 6\nvalue = [1, 5, 0, 0]\nclass = 2", fillcolor="#6cea61"] ;
603 -> 604 ;
605 [label="entropy = 0.0\nsamples = 5\nvalue = [0, 5, 0, 0]\nclass = 2", fillcolor="#47e539"] ;
604 -> 605 ;
606 [label="entropy = 0.0\nsamples = 1\nvalue = [1, 0, 0, 0]\nclass = 1", fillcolor="#e58139"] ;
604 -> 606 ;
607 [label="entropy = 0.0\nsamples = 1\nvalue = [1, 0, 0, 0]\nclass = 1", fillcolor="#e58139"] ;
603 -> 607 ;
608 [label="Wind_Chill(F) <= 64.5\nentropy = 1.485\nsamples = 10\nvalue = [2, 3, 5, 0]\nclass = 3", fillcolor="#c6e3f8"] ;
602 -> 608 ;
609 [label="entropy = 0.0\nsamples = 4\nvalue = [0, 0, 4, 0]\nclass = 3", fillcolor="#399de5"] ;
608 -> 609 ;
610 [label="Pressure(in) <= 24.385\nentropy = 1.459\nsamples = 6\nvalue = [2, 3, 1, 0]\nclass = 2", fillcolor="#d1f8ce"] ;
608 -> 610 ;
611 [label="entropy = 0.918\nsamples = 3\nvalue = [0, 2, 1, 0]\nclass = 2", fillcolor="#a3f29c"] ;
610 -> 611 ;
612 [label="entropy = 0.918\nsamples = 3\nvalue = [2, 1, 0, 0]\nclass = 1", fillcolor="#f2c09c"] ;
610 -> 612 ;
613 [label="Temperature(F) <= 59.0\nentropy = 0.817\nsamples = 12\nvalue = [1, 10, 0, 1]\nclass = 2", fillcolor="#68ea5d"] ;
601 -> 613 ;
614 [label="Pressure(in) <= 24.375\nentropy = 1.0\nsamples = 2\nvalue = [1, 0, 0, 1]\nclass = 1", fillcolor="#ffffff"] ;
613 -> 614 ;
615 [label="entropy = 0.0\nsamples = 1\nvalue = [0, 0, 0, 1]\nclass = 4", fillcolor="#d739e5"] ;
614 -> 615 ;
616 [label="entropy = 0.0\nsamples = 1\nvalue = [1, 0, 0, 0]\nclass = 1", fillcolor="#e58139"] ;
614 -> 616 ;
617 [label="entropy = 0.0\nsamples = 10\nvalue = [0, 10, 0, 0]\nclass = 2", fillcolor="#47e539"] ;
613 -> 617 ;
618 [label="Pressure(in) <= 24.355\nentropy = 0.65\nsamples = 6\nvalue = [0, 1, 5, 0]\nclass = 3", fillcolor="#61b1ea"] ;
600 -> 618 ;
619 [label="entropy = 0.0\nsamples = 4\nvalue = [0, 0, 4, 0]\nclass = 3", fillcolor="#399de5"] ;
618 -> 619 ;
620 [label="Humidity(%) <= 25.5\nentropy = 1.0\nsamples = 2\nvalue = [0, 1, 1, 0]\nclass = 2", fillcolor="#ffffff"] ;
618 -> 620 ;
621 [label="entropy = 0.0\nsamples = 1\nvalue = [0, 0, 1, 0]\nclass = 3", fillcolor="#399de5"] ;
620 -> 621 ;
622 [label="entropy = 0.0\nsamples = 1\nvalue = [0, 1, 0, 0]\nclass = 2", fillcolor="#47e539"] ;
620 -> 622 ;
623 [label="Humidity(%) <= 77.5\nentropy = 1.825\nsamples = 32\nvalue = [3, 13, 6, 10]\nclass = 2", fillcolor="#e6fbe4"] ;
595 -> 623 ;
624 [label="Wind_Chill(F) <= 70.5\nentropy = 1.885\nsamples = 27\nvalue = [3, 8, 6, 10]\nclass = 4", fillcolor="#fbeafc"] ;
623 -> 624 ;
625 [label="Humidity(%) <= 50.0\nentropy = 1.611\nsamples = 14\nvalue = [3, 2, 1, 8]\nclass = 4", fillcolor="#eda5f3"] ;
624 -> 625 ;
626 [label="Visibility(mi) <= 20.0\nentropy = 1.459\nsamples = 6\nvalue = [3, 1, 0, 2]\nclass = 1", fillcolor="#f8e0ce"] ;
625 -> 626 ;
627 [label="Pressure(in) <= 24.455\nentropy = 0.811\nsamples = 4\nvalue = [3, 1, 0, 0]\nclass = 1", fillcolor="#eeab7b"] ;
626 -> 627 ;
628 [label="entropy = 0.0\nsamples = 1\nvalue = [0, 1, 0, 0]\nclass = 2", fillcolor="#47e539"] ;
627 -> 628 ;
629 [label="entropy = 0.0\nsamples = 3\nvalue = [3, 0, 0, 0]\nclass = 1", fillcolor="#e58139"] ;
627 -> 629 ;
630 [label="entropy = 0.0\nsamples = 2\nvalue = [0, 0, 0, 2]\nclass = 4", fillcolor="#d739e5"] ;
626 -> 630 ;
631 [label="Temperature(F) <= 26.0\nentropy = 1.061\nsamples = 8\nvalue = [0, 1, 1, 6]\nclass = 4", fillcolor="#e272ec"] ;
625 -> 631 ;
632 [label="entropy = 0.0\nsamples = 1\nvalue = [0, 0, 1, 0]\nclass = 3", fillcolor="#399de5"] ;
631 -> 632 ;
633 [label="Pressure(in) <= 24.54\nentropy = 0.592\nsamples = 7\nvalue = [0, 1, 0, 6]\nclass = 4", fillcolor="#de5ae9"] ;
631 -> 633 ;
634 [label="entropy = 0.0\nsamples = 5\nvalue = [0, 0, 0, 5]\nclass = 4", fillcolor="#d739e5"] ;
633 -> 634 ;
635 [label="Pressure(in) <= 24.63\nentropy = 1.0\nsamples = 2\nvalue = [0, 1, 0, 1]\nclass = 2", fillcolor="#ffffff"] ;
633 -> 635 ;
636 [label="entropy = 0.0\nsamples = 1\nvalue = [0, 1, 0, 0]\nclass = 2", fillcolor="#47e539"] ;
635 -> 636 ;
637 [label="entropy = 0.0\nsamples = 1\nvalue = [0, 0, 0, 1]\nclass = 4", fillcolor="#d739e5"] ;
635 -> 637 ;
638 [label="Humidity(%) <= 15.0\nentropy = 1.46\nsamples = 13\nvalue = [0, 6, 5, 2]\nclass = 2", fillcolor="#e8fce6"] ;
624 -> 638 ;
639 [label="Wind_Speed(mph) <= 11.5\nentropy = 0.918\nsamples = 3\nvalue = [0, 0, 1, 2]\nclass = 4", fillcolor="#eb9cf2"] ;
638 -> 639 ;
640 [label="entropy = 0.0\nsamples = 1\nvalue = [0, 0, 1, 0]\nclass = 3", fillcolor="#399de5"] ;
639 -> 640 ;
641 [label="entropy = 0.0\nsamples = 2\nvalue = [0, 0, 0, 2]\nclass = 4", fillcolor="#d739e5"] ;
639 -> 641 ;
642 [label="Wind_Chill(F) <= 83.0\nentropy = 0.971\nsamples = 10\nvalue = [0, 6, 4, 0]\nclass = 2", fillcolor="#c2f6bd"] ;
638 -> 642 ;
643 [label="Humidity(%) <= 37.0\nentropy = 0.811\nsamples = 8\nvalue = [0, 6, 2, 0]\nclass = 2", fillcolor="#84ee7b"] ;
642 -> 643 ;
644 [label="Temperature(F) <= 81.5\nentropy = 0.592\nsamples = 7\nvalue = [0, 6, 1, 0]\nclass = 2", fillcolor="#66e95a"] ;
643 -> 644 ;
645 [label="entropy = 0.0\nsamples = 5\nvalue = [0, 5, 0, 0]\nclass = 2", fillcolor="#47e539"] ;
644 -> 645 ;
646 [label="entropy = 1.0\nsamples = 2\nvalue = [0, 1, 1, 0]\nclass = 2", fillcolor="#ffffff"] ;
644 -> 646 ;
647 [label="entropy = 0.0\nsamples = 1\nvalue = [0, 0, 1, 0]\nclass = 3", fillcolor="#399de5"] ;
643 -> 647 ;
648 [label="entropy = 0.0\nsamples = 2\nvalue = [0, 0, 2, 0]\nclass = 3", fillcolor="#399de5"] ;
642 -> 648 ;
649 [label="entropy = 0.0\nsamples = 5\nvalue = [0, 5, 0, 0]\nclass = 2", fillcolor="#47e539"] ;
623 -> 649 ;
650 [label="Wind_Chill(F) <= 47.5\nentropy = 0.722\nsamples = 5\nvalue = [4, 0, 1, 0]\nclass = 1", fillcolor="#eca06a"] ;
564 -> 650 ;
651 [label="entropy = 0.0\nsamples = 1\nvalue = [0, 0, 1, 0]\nclass = 3", fillcolor="#399de5"] ;
650 -> 651 ;
652 [label="entropy = 0.0\nsamples = 4\nvalue = [4, 0, 0, 0]\nclass = 1", fillcolor="#e58139"] ;
650 -> 652 ;
653 [label="Wind_Speed(mph) <= 6.45\nentropy = 0.786\nsamples = 195578\nvalue = [9078, 167190, 16631, 2679]\nclass = 2", fillcolor="#64e958"] ;
3 -> 653 ;
654 [label="Pressure(in) <= 29.605\nentropy = 0.6\nsamples = 95626\nvalue = [3396, 86139, 5118, 973]\nclass = 2", fillcolor="#5ae84e"] ;
653 -> 654 ;
655 [label="Pressure(in) <= 28.835\nentropy = 0.704\nsamples = 37881\nvalue = [1300, 33071, 3108, 402]\nclass = 2", fillcolor="#60e954"] ;
654 -> 655 ;
656 [label="Wind_Chill(F) <= 66.5\nentropy = 0.491\nsamples = 13529\nvalue = [475, 12494, 478, 82]\nclass = 2", fillcolor="#56e749"] ;
655 -> 656 ;
657 [label="Pressure(in) <= 25.205\nentropy = 0.364\nsamples = 10205\nvalue = [169, 9674, 304, 58]\nclass = 2", fillcolor="#51e644"] ;
656 -> 657 ;
658 [label="Pressure(in) <= 24.835\nentropy = 1.102\nsamples = 321\nvalue = [6, 225, 82, 8]\nclass = 2", fillcolor="#91ef89"] ;
657 -> 658 ;
659 [label="Traffic_Signal <= 0.5\nentropy = 0.523\nsamples = 80\nvalue = [0, 72, 7, 1]\nclass = 2", fillcolor="#5be84f"] ;
658 -> 659 ;
660 [label="Pressure(in) <= 24.775\nentropy = 0.432\nsamples = 79\nvalue = [0, 72, 7, 0]\nclass = 2", fillcolor="#59e84c"] ;
659 -> 660 ;
661 [label="Pressure(in) <= 24.735\nentropy = 0.583\nsamples = 43\nvalue = [0, 37, 6, 0]\nclass = 2", fillcolor="#65e959"] ;
660 -> 661 ;
662 [label="entropy = 0.0\nsamples = 14\nvalue = [0, 14, 0, 0]\nclass = 2", fillcolor="#47e539"] ;
661 -> 662 ;
663 [label="Junction <= 0.5\nentropy = 0.736\nsamples = 29\nvalue = [0, 23, 6, 0]\nclass = 2", fillcolor="#77ec6d"] ;
661 -> 663 ;
664 [label="Wind_Chill(F) <= 49.0\nentropy = 0.845\nsamples = 22\nvalue = [0, 16, 6, 0]\nclass = 2", fillcolor="#8cef83"] ;
663 -> 664 ;
665 [label="entropy = 0.65\nsamples = 18\nvalue = [0, 15, 3, 0]\nclass = 2", fillcolor="#6cea61"] ;
664 -> 665 ;
666 [label="entropy = 0.811\nsamples = 4\nvalue = [0, 1, 3, 0]\nclass = 3", fillcolor="#7bbeee"] ;
664 -> 666 ;
667 [label="entropy = 0.0\nsamples = 7\nvalue = [0, 7, 0, 0]\nclass = 2", fillcolor="#47e539"] ;
663 -> 667 ;
668 [label="Wind_Chill(F) <= 63.5\nentropy = 0.183\nsamples = 36\nvalue = [0, 35, 1, 0]\nclass = 2", fillcolor="#4ce63f"] ;
660 -> 668 ;
669 [label="entropy = 0.0\nsamples = 33\nvalue = [0, 33, 0, 0]\nclass = 2", fillcolor="#47e539"] ;
668 -> 669 ;
670 [label="Wind_Speed(mph) <= 2.5\nentropy = 0.918\nsamples = 3\nvalue = [0, 2, 1, 0]\nclass = 2", fillcolor="#a3f29c"] ;
668 -> 670 ;
671 [label="entropy = 0.0\nsamples = 2\nvalue = [0, 2, 0, 0]\nclass = 2", fillcolor="#47e539"] ;
670 -> 671 ;
672 [label="entropy = 0.0\nsamples = 1\nvalue = [0, 0, 1, 0]\nclass = 3", fillcolor="#399de5"] ;
670 -> 672 ;
673 [label="entropy = 0.0\nsamples = 1\nvalue = [0, 0, 0, 1]\nclass = 4", fillcolor="#d739e5"] ;
659 -> 673 ;
674 [label="Temperature(F) <= 45.5\nentropy = 1.221\nsamples = 241\nvalue = [6, 153, 75, 7]\nclass = 2", fillcolor="#a9f3a2"] ;
658 -> 674 ;
675 [label="Traffic_Signal <= 0.5\nentropy = 1.177\nsamples = 148\nvalue = [0, 85, 57, 6]\nclass = 2", fillcolor="#c6f7c2"] ;
674 -> 675 ;
676 [label="Humidity(%) <= 93.5\nentropy = 1.133\nsamples = 143\nvalue = [0, 82, 57, 4]\nclass = 2", fillcolor="#caf7c5"] ;
675 -> 676 ;
677 [label="Pressure(in) <= 25.115\nentropy = 1.151\nsamples = 135\nvalue = [0, 74, 57, 4]\nclass = 2", fillcolor="#d7f9d4"] ;
676 -> 677 ;
678 [label="Junction <= 0.5\nentropy = 1.041\nsamples = 95\nvalue = [0, 57, 37, 1]\nclass = 2", fillcolor="#c0f6bb"] ;
677 -> 678 ;
679 [label="entropy = 0.964\nsamples = 90\nvalue = [0, 55, 35, 0]\nclass = 2", fillcolor="#bcf6b7"] ;
678 -> 679 ;
680 [label="entropy = 1.522\nsamples = 5\nvalue = [0, 2, 2, 1]\nclass = 2", fillcolor="#ffffff"] ;
678 -> 680 ;
681 [label="Humidity(%) <= 42.0\nentropy = 1.305\nsamples = 40\nvalue = [0, 17, 20, 3]\nclass = 3", fillcolor="#e5f2fc"] ;
677 -> 681 ;
682 [label="entropy = 0.0\nsamples = 5\nvalue = [0, 0, 5, 0]\nclass = 3", fillcolor="#399de5"] ;
681 -> 682 ;
683 [label="entropy = 1.334\nsamples = 35\nvalue = [0, 17, 15, 3]\nclass = 2", fillcolor="#edfceb"] ;
681 -> 683 ;
684 [label="entropy = 0.0\nsamples = 8\nvalue = [0, 8, 0, 0]\nclass = 2", fillcolor="#47e539"] ;
676 -> 684 ;
685 [label="Visibility(mi) <= 8.5\nentropy = 0.971\nsamples = 5\nvalue = [0, 3, 0, 2]\nclass = 2", fillcolor="#c2f6bd"] ;
675 -> 685 ;
686 [label="entropy = 0.0\nsamples = 2\nvalue = [0, 0, 0, 2]\nclass = 4", fillcolor="#d739e5"] ;
685 -> 686 ;
687 [label="entropy = 0.0\nsamples = 3\nvalue = [0, 3, 0, 0]\nclass = 2", fillcolor="#47e539"] ;
685 -> 687 ;
688 [label="Humidity(%) <= 80.5\nentropy = 1.114\nsamples = 93\nvalue = [6, 68, 18, 1]\nclass = 2", fillcolor="#84ee7b"] ;
674 -> 688 ;
689 [label="Wind_Chill(F) <= 48.5\nentropy = 0.944\nsamples = 87\nvalue = [4, 67, 16, 0]\nclass = 2", fillcolor="#7bec71"] ;
688 -> 689 ;
690 [label="Pressure(in) <= 24.905\nentropy = 0.337\nsamples = 16\nvalue = [1, 15, 0, 0]\nclass = 2", fillcolor="#53e746"] ;
689 -> 690 ;
691 [label="Humidity(%) <= 20.5\nentropy = 1.0\nsamples = 2\nvalue = [1, 1, 0, 0]\nclass = 1", fillcolor="#ffffff"] ;
690 -> 691 ;
692 [label="entropy = 0.0\nsamples = 1\nvalue = [1, 0, 0, 0]\nclass = 1", fillcolor="#e58139"] ;
691 -> 692 ;
693 [label="entropy = 0.0\nsamples = 1\nvalue = [0, 1, 0, 0]\nclass = 2", fillcolor="#47e539"] ;
691 -> 693 ;
694 [label="entropy = 0.0\nsamples = 14\nvalue = [0, 14, 0, 0]\nclass = 2", fillcolor="#47e539"] ;
690 -> 694 ;
695 [label="Visibility(mi) <= 6.0\nentropy = 1.006\nsamples = 71\nvalue = [3, 52, 16, 0]\nclass = 2", fillcolor="#87ee7d"] ;
689 -> 695 ;
696 [label="entropy = 0.0\nsamples = 2\nvalue = [0, 0, 2, 0]\nclass = 3", fillcolor="#399de5"] ;
695 -> 696 ;
697 [label="Pressure(in) <= 25.085\nentropy = 0.971\nsamples = 69\nvalue = [3, 52, 14, 0]\nclass = 2", fillcolor="#80ed76"] ;
695 -> 697 ;
698 [label="entropy = 0.887\nsamples = 58\nvalue = [1, 44, 13, 0]\nclass = 2", fillcolor="#80ed77"] ;
697 -> 698 ;
699 [label="entropy = 1.096\nsamples = 11\nvalue = [2, 8, 1, 0]\nclass = 2", fillcolor="#84ee7b"] ;
697 -> 699 ;
700 [label="Wind_Chill(F) <= 51.5\nentropy = 1.918\nsamples = 6\nvalue = [2, 1, 2, 1]\nclass = 1", fillcolor="#ffffff"] ;
688 -> 700 ;
701 [label="Humidity(%) <= 84.0\nentropy = 0.918\nsamples = 3\nvalue = [0, 1, 2, 0]\nclass = 3", fillcolor="#9ccef2"] ;
700 -> 701 ;
702 [label="entropy = 0.0\nsamples = 1\nvalue = [0, 0, 1, 0]\nclass = 3", fillcolor="#399de5"] ;
701 -> 702 ;
703 [label="Humidity(%) <= 87.5\nentropy = 1.0\nsamples = 2\nvalue = [0, 1, 1, 0]\nclass = 2", fillcolor="#ffffff"] ;
701 -> 703 ;
704 [label="entropy = 0.0\nsamples = 1\nvalue = [0, 1, 0, 0]\nclass = 2", fillcolor="#47e539"] ;
703 -> 704 ;
705 [label="entropy = 0.0\nsamples = 1\nvalue = [0, 0, 1, 0]\nclass = 3", fillcolor="#399de5"] ;
703 -> 705 ;
706 [label="Wind_Chill(F) <= 55.0\nentropy = 0.918\nsamples = 3\nvalue = [2, 0, 0, 1]\nclass = 1", fillcolor="#f2c09c"] ;
700 -> 706 ;
707 [label="entropy = 0.0\nsamples = 2\nvalue = [2, 0, 0, 0]\nclass = 1", fillcolor="#e58139"] ;
706 -> 707 ;
708 [label="entropy = 0.0\nsamples = 1\nvalue = [0, 0, 0, 1]\nclass = 4", fillcolor="#d739e5"] ;
706 -> 708 ;
709 [label="Temperature(F) <= 42.5\nentropy = 0.321\nsamples = 9884\nvalue = [163, 9449, 222, 50]\nclass = 2", fillcolor="#4fe642"] ;
657 -> 709 ;
710 [label="Pressure(in) <= 25.395\nentropy = 0.178\nsamples = 3952\nvalue = [16, 3866, 58, 12]\nclass = 2", fillcolor="#4be63d"] ;
709 -> 710 ;
711 [label="Junction <= 0.5\nentropy = 0.594\nsamples = 126\nvalue = [2, 111, 13, 0]\nclass = 2", fillcolor="#5fe853"] ;
710 -> 711 ;
712 [label="Pressure(in) <= 25.385\nentropy = 0.492\nsamples = 121\nvalue = [0, 108, 13, 0]\nclass = 2", fillcolor="#5de851"] ;
711 -> 712 ;
713 [label="Temperature(F) <= 27.5\nentropy = 0.396\nsamples = 115\nvalue = [0, 106, 9, 0]\nclass = 2", fillcolor="#57e74a"] ;
712 -> 713 ;
714 [label="Wind_Chill(F) <= 21.5\nentropy = 0.918\nsamples = 12\nvalue = [0, 8, 4, 0]\nclass = 2", fillcolor="#a3f29c"] ;
713 -> 714 ;
715 [label="entropy = 0.0\nsamples = 7\nvalue = [0, 7, 0, 0]\nclass = 2", fillcolor="#47e539"] ;
714 -> 715 ;
716 [label="entropy = 0.722\nsamples = 5\nvalue = [0, 1, 4, 0]\nclass = 3", fillcolor="#6ab6ec"] ;
714 -> 716 ;
717 [label="Wind_Speed(mph) <= 1.5\nentropy = 0.28\nsamples = 103\nvalue = [0, 98, 5, 0]\nclass = 2", fillcolor="#50e643"] ;
713 -> 717 ;
718 [label="entropy = 0.533\nsamples = 33\nvalue = [0, 29, 4, 0]\nclass = 2", fillcolor="#60e954"] ;
717 -> 718 ;
719 [label="entropy = 0.108\nsamples = 70\nvalue = [0, 69, 1, 0]\nclass = 2", fillcolor="#4ae53c"] ;
717 -> 719 ;
720 [label="Temperature(F) <= 27.5\nentropy = 0.918\nsamples = 6\nvalue = [0, 2, 4, 0]\nclass = 3", fillcolor="#9ccef2"] ;
712 -> 720 ;
721 [label="entropy = 0.0\nsamples = 1\nvalue = [0, 1, 0, 0]\nclass = 2", fillcolor="#47e539"] ;
720 -> 721 ;
722 [label="Temperature(F) <= 32.0\nentropy = 0.722\nsamples = 5\nvalue = [0, 1, 4, 0]\nclass = 3", fillcolor="#6ab6ec"] ;
720 -> 722 ;
723 [label="entropy = 0.0\nsamples = 4\nvalue = [0, 0, 4, 0]\nclass = 3", fillcolor="#399de5"] ;
722 -> 723 ;
724 [label="entropy = 0.0\nsamples = 1\nvalue = [0, 1, 0, 0]\nclass = 2", fillcolor="#47e539"] ;
722 -> 724 ;
725 [label="Wind_Speed(mph) <= 1.5\nentropy = 0.971\nsamples = 5\nvalue = [2, 3, 0, 0]\nclass = 2", fillcolor="#c2f6bd"] ;
711 -> 725 ;
726 [label="entropy = 0.0\nsamples = 3\nvalue = [0, 3, 0, 0]\nclass = 2", fillcolor="#47e539"] ;
725 -> 726 ;
727 [label="entropy = 0.0\nsamples = 2\nvalue = [2, 0, 0, 0]\nclass = 1", fillcolor="#e58139"] ;
725 -> 727 ;
728 [label="Temperature(F) <= 39.5\nentropy = 0.158\nsamples = 3826\nvalue = [14, 3755, 45, 12]\nclass = 2", fillcolor="#4ae53d"] ;
710 -> 728 ;
729 [label="Temperature(F) <= 18.5\nentropy = 0.143\nsamples = 3318\nvalue = [8, 3263, 35, 12]\nclass = 2", fillcolor="#4ae53c"] ;
728 -> 729 ;
730 [label="entropy = 0.0\nsamples = 271\nvalue = [0, 271, 0, 0]\nclass = 2", fillcolor="#47e539"] ;
729 -> 730 ;
731 [label="Temperature(F) <= 38.5\nentropy = 0.154\nsamples = 3047\nvalue = [8, 2992, 35, 12]\nclass = 2", fillcolor="#4ae53d"] ;
729 -> 731 ;
732 [label="Pressure(in) <= 25.855\nentropy = 0.165\nsamples = 2797\nvalue = [8, 2742, 35, 12]\nclass = 2", fillcolor="#4be63d"] ;
731 -> 732 ;
733 [label="entropy = 0.168\nsamples = 684\nvalue = [3, 669, 12, 0]\nclass = 2", fillcolor="#4be63d"] ;
732 -> 733 ;
734 [label="entropy = 0.161\nsamples = 2113\nvalue = [5, 2073, 23, 12]\nclass = 2", fillcolor="#4be53d"] ;
732 -> 734 ;
735 [label="entropy = 0.0\nsamples = 250\nvalue = [0, 250, 0, 0]\nclass = 2", fillcolor="#47e539"] ;
731 -> 735 ;
736 [label="Traffic_Signal <= 0.5\nentropy = 0.232\nsamples = 508\nvalue = [6, 492, 10, 0]\nclass = 2", fillcolor="#4de63f"] ;
728 -> 736 ;
737 [label="Pressure(in) <= 27.535\nentropy = 0.175\nsamples = 485\nvalue = [3, 474, 8, 0]\nclass = 2", fillcolor="#4be63e"] ;
736 -> 737 ;
738 [label="Humidity(%) <= 85.5\nentropy = 0.083\nsamples = 289\nvalue = [0, 286, 3, 0]\nclass = 2", fillcolor="#49e53b"] ;
737 -> 738 ;
739 [label="entropy = 0.039\nsamples = 237\nvalue = [0, 236, 1, 0]\nclass = 2", fillcolor="#48e53a"] ;
738 -> 739 ;
740 [label="entropy = 0.235\nsamples = 52\nvalue = [0, 50, 2, 0]\nclass = 2", fillcolor="#4ee641"] ;
738 -> 740 ;
741 [label="Humidity(%) <= 42.0\nentropy = 0.285\nsamples = 196\nvalue = [3, 188, 5, 0]\nclass = 2", fillcolor="#4fe641"] ;
737 -> 741 ;
742 [label="entropy = 0.918\nsamples = 6\nvalue = [0, 4, 2, 0]\nclass = 2", fillcolor="#a3f29c"] ;
741 -> 742 ;
743 [label="entropy = 0.234\nsamples = 190\nvalue = [3, 184, 3, 0]\nclass = 2", fillcolor="#4de63f"] ;
741 -> 743 ;
744 [label="Pressure(in) <= 28.675\nentropy = 0.966\nsamples = 23\nvalue = [3, 18, 2, 0]\nclass = 2", fillcolor="#75ec6a"] ;
736 -> 744 ;
745 [label="Temperature(F) <= 41.5\nentropy = 0.503\nsamples = 18\nvalue = [2, 16, 0, 0]\nclass = 2", fillcolor="#5ee852"] ;
744 -> 745 ;
746 [label="entropy = 0.323\nsamples = 17\nvalue = [1, 16, 0, 0]\nclass = 2", fillcolor="#52e745"] ;
745 -> 746 ;
747 [label="entropy = 0.0\nsamples = 1\nvalue = [1, 0, 0, 0]\nclass = 1", fillcolor="#e58139"] ;
745 -> 747 ;
748 [label="Wind_Speed(mph) <= 1.5\nentropy = 1.522\nsamples = 5\nvalue = [1, 2, 2, 0]\nclass = 2", fillcolor="#ffffff"] ;
744 -> 748 ;
749 [label="entropy = 0.918\nsamples = 3\nvalue = [1, 2, 0, 0]\nclass = 2", fillcolor="#a3f29c"] ;
748 -> 749 ;
750 [label="entropy = 0.0\nsamples = 2\nvalue = [0, 0, 2, 0]\nclass = 3", fillcolor="#399de5"] ;
748 -> 750 ;
751 [label="Pressure(in) <= 27.905\nentropy = 0.404\nsamples = 5932\nvalue = [147, 5583, 164, 38]\nclass = 2", fillcolor="#52e745"] ;
709 -> 751 ;
752 [label="Traffic_Signal <= 0.5\nentropy = 0.323\nsamples = 2647\nvalue = [94, 2521, 26, 6]\nclass = 2", fillcolor="#50e643"] ;
751 -> 752 ;
753 [label="Pressure(in) <= 25.795\nentropy = 0.254\nsamples = 2463\nvalue = [63, 2376, 22, 2]\nclass = 2", fillcolor="#4ee640"] ;
752 -> 753 ;
754 [label="Temperature(F) <= 63.5\nentropy = 0.469\nsamples = 413\nvalue = [19, 381, 13, 0]\nclass = 2", fillcolor="#56e749"] ;
753 -> 754 ;
755 [label="Distance(mi) <= 0.001\nentropy = 0.422\nsamples = 375\nvalue = [19, 349, 7, 0]\nclass = 2", fillcolor="#54e747"] ;
754 -> 755 ;
756 [label="entropy = 0.395\nsamples = 369\nvalue = [19, 345, 5, 0]\nclass = 2", fillcolor="#54e747"] ;
755 -> 756 ;
757 [label="entropy = 0.918\nsamples = 6\nvalue = [0, 4, 2, 0]\nclass = 2", fillcolor="#a3f29c"] ;
755 -> 757 ;
758 [label="Junction <= 0.5\nentropy = 0.629\nsamples = 38\nvalue = [0, 32, 6, 0]\nclass = 2", fillcolor="#6aea5e"] ;
754 -> 758 ;
759 [label="entropy = 0.439\nsamples = 33\nvalue = [0, 30, 3, 0]\nclass = 2", fillcolor="#59e84d"] ;
758 -> 759 ;
760 [label="entropy = 0.971\nsamples = 5\nvalue = [0, 2, 3, 0]\nclass = 3", fillcolor="#bddef6"] ;
758 -> 760 ;
761 [label="Pressure(in) <= 27.105\nentropy = 0.201\nsamples = 2050\nvalue = [44, 1995, 9, 2]\nclass = 2", fillcolor="#4ce63e"] ;
753 -> 761 ;
762 [label="Humidity(%) <= 61.5\nentropy = 0.131\nsamples = 1158\nvalue = [11, 1140, 7, 0]\nclass = 2", fillcolor="#4ae53c"] ;
761 -> 762 ;
763 [label="entropy = 0.16\nsamples = 617\nvalue = [11, 604, 2, 0]\nclass = 2", fillcolor="#4be63d"] ;
762 -> 763 ;
764 [label="entropy = 0.076\nsamples = 541\nvalue = [0, 536, 5, 0]\nclass = 2", fillcolor="#49e53b"] ;
762 -> 764 ;
765 [label="Humidity(%) <= 74.5\nentropy = 0.274\nsamples = 892\nvalue = [33, 855, 2, 2]\nclass = 2", fillcolor="#4fe642"] ;
761 -> 765 ;
766 [label="entropy = 0.211\nsamples = 689\nvalue = [19, 668, 0, 2]\nclass = 2", fillcolor="#4de63f"] ;
765 -> 766 ;
767 [label="entropy = 0.441\nsamples = 203\nvalue = [14, 187, 2, 0]\nclass = 2", fillcolor="#57e74a"] ;
765 -> 767 ;
768 [label="Humidity(%) <= 55.5\nentropy = 0.944\nsamples = 184\nvalue = [31, 145, 4, 4]\nclass = 2", fillcolor="#76ec6b"] ;
752 -> 768 ;
769 [label="Wind_Chill(F) <= 46.5\nentropy = 0.845\nsamples = 110\nvalue = [30, 80, 0, 0]\nclass = 2", fillcolor="#8cef83"] ;
768 -> 769 ;
770 [label="entropy = 0.0\nsamples = 18\nvalue = [0, 18, 0, 0]\nclass = 2", fillcolor="#47e539"] ;
769 -> 770 ;
771 [label="Pressure(in) <= 27.33\nentropy = 0.911\nsamples = 92\nvalue = [30, 62, 0, 0]\nclass = 2", fillcolor="#a0f299"] ;
769 -> 771 ;
772 [label="entropy = 0.966\nsamples = 74\nvalue = [29, 45, 0, 0]\nclass = 2", fillcolor="#bef6b9"] ;
771 -> 772 ;
773 [label="entropy = 0.31\nsamples = 18\nvalue = [1, 17, 0, 0]\nclass = 2", fillcolor="#52e745"] ;
771 -> 773 ;
774 [label="Station <= 0.5\nentropy = 0.703\nsamples = 74\nvalue = [1, 65, 4, 4]\nclass = 2", fillcolor="#5fe852"] ;
768 -> 774 ;
775 [label="Pressure(in) <= 25.97\nentropy = 0.474\nsamples = 69\nvalue = [1, 64, 3, 1]\nclass = 2", fillcolor="#55e748"] ;
774 -> 775 ;
776 [label="entropy = 0.779\nsamples = 13\nvalue = [0, 10, 3, 0]\nclass = 2", fillcolor="#7eed74"] ;
775 -> 776 ;
777 [label="entropy = 0.258\nsamples = 56\nvalue = [1, 54, 0, 1]\nclass = 2", fillcolor="#4ee640"] ;
775 -> 777 ;
778 [label="Temperature(F) <= 50.0\nentropy = 1.371\nsamples = 5\nvalue = [0, 1, 1, 3]\nclass = 4", fillcolor="#eb9cf2"] ;
774 -> 778 ;
779 [label="entropy = 0.0\nsamples = 3\nvalue = [0, 0, 0, 3]\nclass = 4", fillcolor="#d739e5"] ;
778 -> 779 ;
780 [label="entropy = 1.0\nsamples = 2\nvalue = [0, 1, 1, 0]\nclass = 2", fillcolor="#ffffff"] ;
778 -> 780 ;
781 [label="Wind_Speed(mph) <= 5.5\nentropy = 0.448\nsamples = 3285\nvalue = [53, 3062, 138, 32]\nclass = 2", fillcolor="#54e747"] ;
751 -> 781 ;
782 [label="Visibility(mi) <= 0.375\nentropy = 0.387\nsamples = 2873\nvalue = [35, 2711, 102, 25]\nclass = 2", fillcolor="#52e745"] ;
781 -> 782 ;
783 [label="Temperature(F) <= 61.5\nentropy = 1.553\nsamples = 21\nvalue = [3, 13, 3, 2]\nclass = 2", fillcolor="#99f191"] ;
782 -> 783 ;
784 [label="Pressure(in) <= 28.635\nentropy = 1.216\nsamples = 19\nvalue = [3, 13, 3, 0]\nclass = 2", fillcolor="#8cef83"] ;
783 -> 784 ;
785 [label="entropy = 0.722\nsamples = 10\nvalue = [0, 8, 2, 0]\nclass = 2", fillcolor="#75ec6a"] ;
784 -> 785 ;
786 [label="entropy = 1.352\nsamples = 9\nvalue = [3, 5, 1, 0]\nclass = 2", fillcolor="#c2f6bd"] ;
784 -> 786 ;
787 [label="entropy = 0.0\nsamples = 2\nvalue = [0, 0, 0, 2]\nclass = 4", fillcolor="#d739e5"] ;
783 -> 787 ;
788 [label="Humidity(%) <= 63.5\nentropy = 0.373\nsamples = 2852\nvalue = [32, 2698, 99, 23]\nclass = 2", fillcolor="#51e644"] ;
782 -> 788 ;
789 [label="Pressure(in) <= 28.325\nentropy = 0.338\nsamples = 1245\nvalue = [20, 1188, 25, 12]\nclass = 2", fillcolor="#50e642"] ;
788 -> 789 ;
790 [label="entropy = 0.773\nsamples = 123\nvalue = [8, 106, 7, 2]\nclass = 2", fillcolor="#62e956"] ;
789 -> 790 ;
791 [label="entropy = 0.277\nsamples = 1122\nvalue = [12, 1082, 18, 10]\nclass = 2", fillcolor="#4ee640"] ;
789 -> 791 ;
792 [label="Traffic_Signal <= 0.5\nentropy = 0.391\nsamples = 1607\nvalue = [12, 1510, 74, 11]\nclass = 2", fillcolor="#53e746"] ;
788 -> 792 ;
793 [label="entropy = 0.359\nsamples = 1500\nvalue = [10, 1420, 59, 11]\nclass = 2", fillcolor="#51e644"] ;
792 -> 793 ;
794 [label="entropy = 0.715\nsamples = 107\nvalue = [2, 90, 15, 0]\nclass = 2", fillcolor="#69ea5e"] ;
792 -> 794 ;
795 [label="Temperature(F) <= 52.5\nentropy = 0.801\nsamples = 412\nvalue = [18, 351, 36, 7]\nclass = 2", fillcolor="#65e959"] ;
781 -> 795 ;
796 [label="Station <= 0.5\nentropy = 0.603\nsamples = 125\nvalue = [10, 111, 4, 0]\nclass = 2", fillcolor="#5de851"] ;
795 -> 796 ;
797 [label="Stop <= 0.5\nentropy = 0.525\nsamples = 123\nvalue = [10, 111, 2, 0]\nclass = 2", fillcolor="#5be84e"] ;
796 -> 797 ;
798 [label="entropy = 0.474\nsamples = 120\nvalue = [8, 110, 2, 0]\nclass = 2", fillcolor="#57e74b"] ;
797 -> 798 ;
799 [label="entropy = 0.918\nsamples = 3\nvalue = [2, 1, 0, 0]\nclass = 1", fillcolor="#f2c09c"] ;
797 -> 799 ;
800 [label="entropy = 0.0\nsamples = 2\nvalue = [0, 0, 2, 0]\nclass = 3", fillcolor="#399de5"] ;
796 -> 800 ;
801 [label="Humidity(%) <= 61.0\nentropy = 0.843\nsamples = 287\nvalue = [8, 240, 32, 7]\nclass = 2", fillcolor="#69ea5d"] ;
795 -> 801 ;
802 [label="Pressure(in) <= 28.28\nentropy = 0.837\nsamples = 128\nvalue = [8, 109, 6, 5]\nclass = 2", fillcolor="#64e958"] ;
801 -> 802 ;
803 [label="entropy = 1.555\nsamples = 15\nvalue = [3, 9, 2, 1]\nclass = 2", fillcolor="#a3f29c"] ;
802 -> 803 ;
